1299 64
66 -0.759190 -0.063941 -0.053353 -0.281987 0.213138 0.055474 0.316752 0.656108 0.153703 0.498630 0.102725 -0.534222 0.414979 -0.579186 0.017072 -0.239852 -0.318309 0.071481 -0.200366 -0.160058 0.426981 0.037616 0.431937 -0.261562 0.379502 -0.093855 0.341143 0.279739 -0.183460 -0.182383 -0.585979 0.372401 -0.240118 0.289411 -0.749008 -0.175106 -0.317261 -0.216171 -0.222196 0.047000 -0.353902 -0.291035 0.006477 0.376755 -0.250552 -0.578023 -0.603626 -0.124903 -0.282332 -0.462912 -0.067895 -0.221690 -0.374334 -0.083690 0.348215 -0.088721 -0.083873 -0.260306 0.622008 0.217329 0.186382 -0.467153 -0.158437 -0.079452
466 0.044265 0.156696 0.402332 1.118727 -0.420663 0.132036 -0.172564 0.369252 -0.746008 0.956786 0.377764 0.020665 -0.057680 -0.733092 0.189378 0.143201 -0.841801 -0.445879 0.230828 0.260805 0.086207 0.025040 -0.366612 0.008101 -0.085580 -0.037567 -0.222764 0.694987 0.335182 -0.065174 -0.402241 0.395363 -0.575395 -0.068440 -0.708066 -0.157713 0.424307 -0.430798 -0.276141 -0.211314 0.319971 0.604284 0.039327 0.099982 -0.200878 -0.129899 -0.371690 -0.080772 0.367579 -0.173321 0.354032 -0.565884 -0.778141 0.908602 -0.407956 -0.210732 -0.010361 -0.667627 0.472164 -0.224537 0.426118 -0.462304 0.305415 -0.374594
872 -0.041754 0.309183 0.222939 -0.199183 -0.047459 -0.637943 -0.035623 0.064211 0.270194 -0.098975 0.226727 0.419569 -0.312514 0.082068 -0.015170 0.761865 0.586398 0.575653 0.000870 0.511881 0.666026 0.226282 0.265114 -0.109839 -0.447457 0.020152 0.181717 0.236940 0.369928 0.440032 -0.050590 0.036713 0.515798 -0.075587 -0.731748 0.255563 -0.657866 0.093844 0.345082 0.038618 0.448178 0.112827 -0.412072 -0.082655 -0.543779 -0.112270 -0.161513 -0.066106 -0.166585 -0.083575 0.409236 -0.233367 0.486497 -0.208897 -0.186668 -0.451396 -0.079999 -0.189143 -0.171188 0.311719 0.670585 -0.320926 0.491813 -0.485734
518 0.043829 0.069636 -0.086125 -0.385341 -0.521881 -0.207860 0.407770 0.636006 0.342484 0.300432 -0.051453 -0.427676 0.493909 -0.363180 -0.134710 0.640089 -0.204485 -0.062047 -0.149480 -0.145547 0.072350 0.682271 0.259966 0.275118 0.775693 0.134306 -0.218269 -0.319135 -0.321038 0.286486 -0.588178 0.793632 -0.239765 -0.501863 0.020591 -0.446888 0.001013 0.447360 0.149704 -0.315951 0.772836 -0.345270 -0.580844 0.477378 -0.229116 -0.481257 -0.174279 -0.490245 -0.397360 -0.664173 -0.584131 -0.160283 -0.629623 -0.210670 0.239564 -0.368260 0.483884 -0.001028 -0.678719 -0.289833 -0.526348 -0.512105 0.067359 -0.345632
135 0.218429 0.064677 -0.052911 -0.277671 0.286111 0.461136 -0.217309 0.008839 -0.450442 0.091763 -0.058473 0.591478 0.825701 -0.182519 0.023443 0.711574 -0.037817 0.102320 -0.064274 -0.146388 0.644575 -0.533377 0.348306 -0.224491 -0.254106 -0.454925 -0.632429 -0.214284 -0.152324 0.653252 -0.197856 0.710394 0.795239 0.362216 0.061715 0.071157 0.114066 -0.851014 0.200870 0.375368 -0.222952 0.118609 -0.403222 -0.354150 -0.051755 -0.203634 -0.456091 -0.368970 0.082101 0.091846 0.217724 -0.659828 -0.176514 -0.440012 -0.344698 0.044709 0.237066 -0.100015 -0.733369 0.071516 -0.041647 -0.336168 -0.600709 0.193650
37 0.015150 0.151325 0.150351 -0.419847 -0.535272 0.038271 -0.115075 -0.134641 -0.266467 0.083272 -0.237586 0.479608 0.092599 -0.179528 0.123524 0.282906 -0.292074 -0.375036 0.324050 0.026337 0.098392 -0.398742 0.402303 -0.351531 -0.204358 0.235547 -0.502466 0.416480 0.030596 -0.496943 0.052914 -0.011923 0.272312 0.106210 -0.394227 -0.005594 -0.381847 -0.039461 0.297540 -0.296338 0.112188 -0.700271 -0.068207 0.254247 0.303594 -0.200418 -1.034614 -0.304221 -0.603014 0.593674 0.426141 -0.559336 -0.211679 0.041852 -0.096471 -0.192819 -0.106249 -0.168590 -0.065036 0.328838 -0.152911 0.303894 -0.176813 -0.242087
245 0.170756 -0.952271 -0.084391 -0.260269 0.281575 0.075875 -0.438227 -0.141948 0.185119 0.863365 0.595264 0.349596 -0.134213 0.713725 -0.348422 -0.378790 1.290424 -0.173046 0.987121 -0.099389 0.098513 0.022201 0.606206 -0.376752 -0.764341 0.161799 0.074728 0.255774 -0.328470 -0.331862 -0.880072 0.012625 0.387651 -0.040553 -0.036241 0.077562 0.512880 0.603770 0.098421 -0.172551 -0.154161 -0.428967 -0.228227 0.268902 -0.117328 0.498243 0.048514 -0.363499 0.252482 0.433634 -0.686270 -0.331099 0.138124 -0.213133 0.192119 -0.084127 -0.064649 0.563392 0.930014 -0.408229 -0.149941 0.206084 0.180530 0.302524
375 -0.712527 -0.244976 0.866250 -0.156268 0.177955 -0.416095 -0.853075 0.307281 -0.124572 0.263880 -0.203696 0.462155 0.599695 0.590117 0.147894 0.410729 -1.244904 0.134447 -0.236760 -0.223021 0.076305 0.077822 0.292102 0.249084 0.462416 -0.125313 -0.733016 -0.318929 0.313491 -0.199517 -0.414368 0.685828 0.094611 -0.773539 0.186024 -0.257955 -0.766411 -0.203784 0.289641 0.387690 0.475587 -0.405904 0.151656 -0.700522 -0.190454 0.397786 0.031880 0.308383 0.190632 0.285143 0.519261 -0.118615 -0.264009 0.201095 -0.500864 -0.332567 -0.269414 0.991748 0.232462 -0.458018 0.122136 0.670695 -0.180025 -0.172924
959 0.170253 -0.458734 -0.168182 -0.189331 0.800550 0.518076 0.332306 -0.925206 0.706264 -0.827413 0.185675 0.655788 0.101784 -0.136257 0.843025 -0.329707 -0.118530 0.028188 -0.681496 0.522345 0.280478 0.488042 -0.452485 -0.610615 -0.232393 -0.114286 0.333676 -0.328293 0.225868 0.969433 0.986007 -0.052862 0.576549 -0.685754 0.266328 0.727002 -0.131528 0.895752 -0.079503 0.020355 1.111898 0.169742 0.570226 0.522205 -0.210693 -0.442679 -0.337766 -0.445782 0.844717 -0.764325 0.552673 -1.164937 0.058050 0.007008 0.473343 0.871633 -0.408362 0.240058 -0.799163 0.390640 -0.381409 -0.176879 -0.079496 -0.089858
1106 0.043651 -1.003917 0.085892 -0.081350 0.495883 -0.069298 -0.028742 0.123643 0.088297 0.588142 0.621731 0.062408 -0.169073 0.641695 -0.247312 -0.183232 0.960245 -0.377351 1.046051 0.164455 -0.243102 0.104102 0.624768 -0.708695 -0.588667 0.057329 0.061471 0.158416 -0.430362 0.041653 -0.526875 0.100918 0.444759 -0.113585 -0.002381 0.050460 0.385773 0.720547 0.025691 -0.135026 -0.306538 -0.558632 -0.064959 0.123369 -0.205151 0.693579 0.377227 -0.062983 0.183554 0.535473 -0.671170 -0.460455 0.048176 -0.220646 0.277188 0.042352 -0.157433 0.399426 0.965397 -0.126024 -0.106743 0.277871 -0.179667 0.138296
493 0.250568 -0.369289 -0.224025 0.490397 -0.560233 0.431521 0.433355 0.103706 -0.816467 0.012609 -0.292402 0.230059 0.056176 0.647726 0.429087 -0.372943 -0.055770 -0.099337 -0.018926 -0.395259 -0.345302 -1.022329 1.479388 -0.056891 -0.050431 -0.305239 0.359851 0.340969 -0.744834 0.481083 0.192153 0.157754 0.289130 0.420490 -0.077729 0.061155 0.241200 0.275735 0.062228 -0.645199 0.343460 0.627861 -0.104969 0.963628 -0.113791 -0.116505 0.420002 -0.485954 -0.131431 0.624597 -0.091767 -0.246384 0.340429 0.342716 0.216636 -0.109166 0.069847 -0.693251 0.657885 -0.722935 -0.091398 -0.859033 0.418382 -0.876416
797 -0.464892 -0.034417 -0.139022 0.375644 0.577501 0.080386 0.727911 0.057593 0.308408 0.059663 -0.615496 0.670350 -0.334766 0.203483 -0.732713 1.017608 0.726467 0.400675 -0.267927 1.162371 -0.484892 -0.400976 0.300394 -0.070875 0.570462 0.162857 -0.108054 -0.198238 0.328565 0.331377 -0.265653 0.139161 -0.081594 0.593456 -0.122818 -0.133463 -0.530010 0.158839 0.820862 -0.960339 -0.114366 -0.451552 0.283819 -0.131243 -0.418865 0.670536 -0.691108 0.372302 0.829808 0.249481 -0.062362 0.938565 0.490575 -0.165227 -0.162094 -0.482780 0.013363 -0.011190 0.468410 -0.122399 -0.335405 -1.084236 0.136170 0.070461
146 -0.212995 0.816882 0.644895 -0.247040 0.549293 -0.749883 -0.652849 0.583106 0.301157 0.320596 -0.423839 1.258030 0.653064 0.464040 0.168873 0.036411 0.462254 0.203884 -0.289758 0.511578 -0.574199 0.216122 0.197707 -0.415431 0.297950 0.049759 0.425837 0.508232 0.136646 0.377218 0.243303 -0.283748 0.409873 -0.370816 -0.669564 0.178013 0.007300 0.487271 0.105457 0.112203 1.029952 0.027308 0.737836 -0.562676 -0.864941 0.212890 -0.638806 0.104398 -0.410689 -0.227933 0.264528 0.101836 0.925820 -0.380638 0.264569 -0.830372 0.152878 0.081595 0.346743 -0.408112 0.458033 -0.894985 0.540368 -0.056477
441 -1.376373 0.454903 0.525835 -0.239214 0.448011 -0.452144 -0.286554 0.507089 0.498515 0.462196 0.807807 -0.767983 0.413518 -0.081560 -0.287695 -0.648672 0.011561 -0.607528 -0.465997 -0.077947 0.569349 0.070864 0.363350 -0.129547 1.298617 -0.567443 0.131448 0.338241 0.114532 -0.170737 0.459652 0.550975 -0.460839 0.638603 -0.248821 -1.132021 0.795037 -0.086510 0.694623 0.353653 -0.102768 0.064669 -0.444729 0.294885 -0.713762 -0.781882 -0.445437 0.246136 -0.565447 -0.256074 0.165491 0.247227 0.152870 0.336570 0.656470 0.610896 0.217122 -0.078302 0.114393 0.242443 0.098863 -0.259685 -0.127003 0.195105
967 -0.271895 0.547308 -0.042795 -0.669200 0.388227 -1.223316 0.614198 0.270406 0.466573 0.765454 0.441143 1.881976 -0.470670 0.531778 0.556193 -0.545652 0.053971 -0.694570 0.004094 0.092104 -0.292282 -0.084728 0.143343 0.597541 0.320089 0.186310 0.387896 -0.312592 0.139498 0.152188 0.192250 0.023385 0.449593 -0.120259 -1.309824 0.150162 0.185941 0.312237 0.206287 0.925936 0.005228 0.323907 -0.350363 0.771231 0.269671 0.057119 -0.344805 0.312993 0.413498 -0.291079 0.057815 0.613026 -0.102164 0.900614 -0.746222 0.395860 -0.599922 0.054324 0.436029 0.481928 -0.418867 0.689730 0.309692 0.101061
191 0.276520 0.905128 0.492764 -0.016775 0.209737 -0.299502 -0.298873 0.538985 -1.226783 0.338392 -0.029055 0.261524 -0.312488 -0.185884 -0.680613 -0.084153 1.624241 -0.295626 -0.016810 -1.087745 0.221496 0.092500 0.280346 0.281288 0.096713 -0.243067 0.087561 0.093960 1.166283 0.029801 -0.438814 -0.121188 -0.082605 -0.121183 -0.662684 -0.335153 -0.670868 0.698957 0.172798 -0.609260 0.276180 0.887919 -0.007677 -0.154050 -0.111731 0.084616 0.998068 0.128970 -0.812568 -0.521373 0.033382 0.083689 -0.045661 0.250730 -0.298187 -0.538099 0.180338 -0.860674 -0.401509 1.149061 0.362988 -0.660554 -0.527266 0.214389
573 0.708718 -0.288433 0.850386 -0.402174 -0.010519 0.990639 -0.303023 1.306028 -0.410312 -0.258252 0.068047 -1.078341 -0.198319 0.518447 -0.278630 -0.405601 0.802146 0.698199 0.635551 -0.715219 0.024296 0.650365 0.838287 0.500368 0.007390 -0.454918 -0.789366 0.219865 -0.975618 -0.078735 0.248156 -0.116610 0.165115 0.463049 0.253408 -0.516294 0.927532 -0.162419 0.012315 0.228154 0.010287 0.034400 -0.595900 -0.483464 -0.303793 0.118820 0.262589 0.620419 -0.587540 0.828650 -0.400961 0.515512 -0.092809 -0.278721 0.003924 0.038592 -0.692266 -0.580658 0.243089 0.197729 -0.176652 -0.553061 -0.898998 -0.043990
208 -0.795510 0.165558 -0.022322 -0.066876 1.096682 0.565941 -0.563627 0.221477 -0.826437 -0.484812 0.453710 -0.643002 0.954242 0.489898 0.368732 -0.922090 -0.336616 0.952609 -0.240682 -0.246655 0.288008 0.034197 0.912100 -0.069183 -0.672337 0.379546 -0.547716 0.582699 0.348580 0.014539 0.241819 -1.409398 -0.135679 -0.342703 -0.184489 0.476933 -0.530788 0.555088 1.139121 -0.050163 0.166536 0.202759 -0.088789 -0.362214 0.686994 0.106675 0.016148 -0.990046 0.343323 -0.164633 0.389014 0.407778 0.080247 0.510371 -0.434722 -0.480274 0.992640 0.675699 0.181041 0.210956 -0.211305 -0.112770 -0.041389 -0.548899
193 -0.298858 0.591053 0.262443 -0.166826 -0.368193 0.462269 -0.049736 0.161854 0.089550 -0.089004 0.357550 0.892528 -0.116036 -0.331965 0.017828 0.241062 -0.373190 0.144890 0.290136 0.036768 0.184614 0.065492 0.321753 -0.348887 -0.141834 0.306813 -0.570065 -0.219269 -0.071836 -0.463549 -0.227367 -0.140456 0.063700 0.072101 -0.368594 0.284738 -0.270724 -0.235549 0.833417 -0.241965 -0.325003 -0.126051 -0.153152 0.197556 -0.545439 -0.723778 -0.648630 -0.291593 -0.277048 0.294138 0.350105 -0.677424 -0.224134 -0.334601 0.115579 -0.043551 0.090879 -0.143000 0.272213 0.170611 0.243605 0.056893 -0.140604 0.030126
1023 -0.055628 0.550489 0.471428 0.161934 0.792239 0.396124 -0.780840 0.249049 -0.304013 -0.492581 0.249520 -0.384203 0.855334 -0.025152 0.419152 -0.428283 0.294401 -0.048864 0.297992 -0.597193 -0.245656 -0.354976 0.485950 0.220538 -0.587831 0.691896 -0.188584 1.493386 0.447613 -0.518341 0.012464 -0.702500 -0.144915 -0.709502 -0.572221 0.867084 -0.778110 0.242602 0.767539 0.569689 0.190635 -0.014937 0.009422 -0.098531 0.236983 0.451313 -0.427151 -0.713603 0.121817 -0.048164 0.625276 0.514744 -0.058509 0.044276 0.020164 -0.003555 0.608301 0.299047 0.123092 0.066564 -0.039711 -0.313574 0.227282 0.076281
1028 -0.547464 -0.600632 -0.370514 -0.466025 0.280027 0.685426 -0.529115 1.417454 -0.538745 0.184076 0.360485 -0.038223 0.777354 -0.704534 -0.556173 0.019460 0.193832 0.061230 -0.400244 0.065632 0.917683 0.001462 0.543210 -0.674733 0.176755 -0.065589 0.458611 0.344235 0.263118 0.539742 -0.484554 1.108349 -0.323322 0.317658 -0.054155 0.046406 0.132167 -0.420989 -0.481882 -0.052330 -0.459878 0.133509 -0.356221 0.357880 0.037174 -0.768915 -0.721477 0.241204 -0.290629 -0.268317 -0.150420 -0.732245 -0.407859 -0.476276 0.504508 0.026475 0.171632 0.131955 -0.064943 0.305853 -0.209270 -0.920993 -0.246172 0.115722
883 0.867408 -0.193491 0.827856 0.583160 -0.522172 0.462049 0.637520 0.686522 0.105871 -0.256707 -0.303618 0.700832 0.186043 -0.661252 0.416951 -0.128628 0.169084 -0.425209 0.613385 0.411648 0.823761 -0.721515 -0.073331 -0.188725 0.484782 0.197773 0.212256 0.139831 0.239582 -0.377171 0.116183 -0.170785 0.034786 -0.086606 -0.779917 -0.278289 -0.477909 0.066909 0.883403 -0.227748 -0.571765 -0.210288 0.345322 0.544928 -0.475045 -0.606152 -0.679358 -0.377025 0.003480 0.759503 0.046393 -0.252858 -0.153436 -0.974895 -0.201795 -0.149525 -0.166904 -0.250715 -0.086847 0.205389 -0.016246 0.325028 -0.338452 -0.337589
345 0.461717 -0.110761 0.809626 0.573389 0.425164 -0.017134 0.328011 0.570796 0.192768 0.178695 -0.849025 0.666298 0.490792 -0.571144 0.430113 0.234492 0.252769 1.028994 0.202293 -0.148296 -0.100019 0.631167 0.337121 -0.760490 -0.167849 -0.268579 0.405092 0.097586 -0.191856 -0.310569 -0.103004 -0.118571 -0.080543 0.598630 0.781449 -0.315688 0.383550 -0.849106 0.012041 0.304786 0.318799 -0.280931 -0.069186 -0.202902 0.669381 0.229151 -0.487726 -0.063904 0.039096 0.079744 0.344442 0.044796 -0.375755 0.895578 -0.619726 -0.290616 0.450629 0.217814 -0.370681 0.212256 0.575945 0.174124 -0.066355 0.801510
623 -0.308278 -0.686625 0.248847 -1.291582 0.200212 -0.726700 -0.313138 0.326303 0.766750 1.277853 -0.229742 -0.365931 -0.495041 0.740906 -0.682066 1.316013 -0.160891 0.196631 -0.439133 0.681221 -0.257810 0.521615 -0.877470 0.334073 0.273109 -0.260487 -0.416825 -0.116194 0.229237 0.232321 0.126285 -0.828103 0.470328 0.270372 -0.561927 0.004767 0.642855 0.705362 -0.305389 0.397182 -0.116175 0.507497 -0.088313 0.059631 -0.342706 -0.054280 0.092957 -0.929192 -0.637241 -0.594653 0.887610 0.278407 -1.003921 0.254863 -0.151520 -0.565314 0.087491 -0.375065 0.012337 -0.926250 0.065872 0.002684 -0.516019 -0.449825
744 -0.482384 -0.070224 -0.654492 0.252674 0.028081 0.377814 0.076073 -0.872285 -0.085000 -0.328672 0.146738 -0.211822 0.392553 -0.224067 -0.827589 1.018698 0.874729 -0.715709 0.525935 -0.333961 -0.675571 -0.482858 -0.100482 -0.052731 0.706513 -0.008672 -0.199038 0.165665 -0.522514 -0.550799 0.580408 -0.188482 0.522177 0.750167 -0.262694 -0.076789 -0.373949 0.161407 0.447012 0.471431 0.109581 0.508435 -0.347089 0.307373 0.547752 -0.340596 0.256353 -0.261474 0.007450 0.269164 -0.468310 0.158639 -0.262134 0.482387 -0.419452 0.703782 -0.851386 -0.670480 0.371115 -0.196215 0.436338 -0.722494 0.318728 0.469279
1262 -1.177177 -0.438994 -0.459826 0.612832 0.178022 -0.664631 0.080024 -0.294937 0.487587 -0.167787 1.435967 -0.392617 1.025727 -0.198987 -0.542081 0.222044 -0.838662 -0.546085 -0.672793 0.186575 0.566912 -0.057810 -0.512461 0.036529 0.519803 0.320798 0.611926 0.245212 -0.251572 -0.227916 -1.653387 0.137487 0.053237 0.765098 -1.115087 -1.038185 -0.337155 0.069562 0.090611 0.553545 -0.283906 -0.671629 0.020642 0.704429 -0.283291 -0.383152 -0.251043 -0.689537 0.184075 -0.003085 0.109847 -0.573483 -0.338749 0.596692 -0.062265 -0.060177 0.152350 0.161923 -0.126325 0.168417 -0.217197 -0.353824 0.129186 -0.112614
319 0.072999 0.665697 -0.653623 -0.526932 -0.077231 -1.470185 0.194534 0.187518 0.094194 0.276965 0.810350 1.524690 -0.305629 0.064896 0.311534 -0.074794 0.176157 -0.747675 -0.154343 0.386514 0.184051 -0.196495 0.386989 -0.591587 0.170587 0.312172 0.813195 -0.357537 0.213980 0.638086 -0.182677 0.076471 0.626789 0.105932 -0.794687 -0.244098 -0.387545 0.169831 0.354362 0.132368 0.091650 0.430086 -0.180734 0.192436 0.429323 -0.170017 -0.121248 0.142703 0.235036 -0.861307 0.125071 0.527483 0.268037 0.231820 -0.503146 -0.493014 -0.077545 0.083267 0.209781 0.638482 -0.381832 0.337005 0.118588 -0.070465
67 0.324127 0.078753 0.006717 0.509084 -0.556386 0.368247 0.148615 -0.546818 0.405115 -0.224319 -0.557872 -0.531133 0.116821 0.321783 0.008638 -0.239460 -0.212041 -0.227069 -0.076914 0.156416 -0.446407 -1.261100 0.746361 -0.397085 -0.295709 -0.597786 0.360906 0.244466 -0.551587 0.658221 0.567674 0.077562 -0.080643 0.742767 -0.897792 0.358159 0.516365 0.160799 0.175807 -0.322407 0.099716 0.848286 0.061185 1.253818 0.248575 0.047697 0.706092 -0.689912 0.506469 -0.252489 -0.080409 0.159620 0.620942 0.626791 -0.042084 -0.003263 -0.226130 -1.140372 0.185729 -0.543729 -0.226037 -0.792393 0.450864 -0.721223
705 0.016290 -0.006622 0.125089 -1.056268 0.427793 -0.782771 0.153207 0.461332 0.892930 0.565795 -0.186230 0.134534 -0.351346 0.370194 0.005652 1.618877 0.163885 0.147681 -0.220233 0.668298 -0.266189 0.306406 -0.551232 -0.152144 -0.400403 -0.453166 -0.193159 0.171119 0.380179 0.077751 -0.145983 -0.666487 0.441293 -0.631158 -1.255393 0.874687 0.289873 0.324521 0.366834 0.548289 -0.137576 0.378577 -0.310214 -0.041545 -0.131214 0.087342 -0.064354 -0.470971 -0.065313 -0.741865 0.521337 -0.045721 -0.095345 0.178815 -0.358693 -0.351412 0.441943 -0.434517 0.164053 -0.342193 0.667224 -0.080285 -0.418734 -0.520967
759 0.757597 -0.526649 0.499700 -0.047753 -0.381383 -0.289821 -1.151429 0.623834 -0.003401 -0.688131 0.236896 -0.455065 0.418332 -0.089984 -0.091231 0.192605 0.608024 -0.848426 0.618193 -0.535155 -0.826628 -0.200636 -1.001798 -0.301787 -0.821740 -0.214278 -0.772078 0.006223 -0.890563 0.731104 -0.181140 -0.673732 0.726046 1.021522 0.620542 0.053819 0.600190 0.197498 0.112768 0.280566 0.419384 -0.007713 0.233175 0.128154 0.311932 -1.442259 -0.131698 -0.193083 0.595729 -0.860357 -0.261792 1.221343 0.259339 0.050886 -0.374900 0.240559 -0.207056 0.990776 0.192836 -1.085147 -0.711110 -0.780395 0.135713 -0.899049
988 -0.447514 -0.176889 -1.229264 0.488404 -0.499770 0.425639 -0.488433 -0.126153 0.194066 -0.201875 0.819073 -0.608183 -0.114615 -0.065980 -0.461090 0.646187 1.068307 -0.116274 0.983363 -0.860563 -0.158960 -1.169263 -0.574429 -0.032850 0.742191 -0.017949 -0.451924 0.420094 -0.487039 -0.261165 0.231263 -0.498748 0.365245 0.537586 0.571676 -0.339119 -1.014675 -0.383182 0.160185 0.045082 0.042838 -0.099536 -0.428528 0.097944 -0.056786 -0.409112 0.157708 0.369077 0.440453 -0.095175 -1.096385 0.516375 -0.124127 0.893147 -0.522951 0.317766 -0.742088 -0.275150 0.770442 -0.062529 0.337709 -0.645351 0.602024 -0.072771
501 0.315151 0.452370 -0.532100 0.649286 -0.038386 0.382976 0.126754 -0.118984 -0.180791 0.025506 -0.395015 -0.539146 -0.006596 0.426237 0.432353 -0.213808 -0.261099 -0.481229 -0.776313 -0.086571 -0.458756 -0.870361 0.949899 -0.187127 0.074853 -0.501669 0.493492 0.026114 -0.762792 0.503459 0.709618 0.263758 0.148096 0.659574 -0.728058 0.039877 0.775775 -0.069551 0.165252 -0.244757 0.101896 0.711039 0.195677 0.758710 0.019123 0.116628 0.379845 -0.643375 0.566869 -0.384158 -0.309722 0.192597 0.853797 0.218062 0.361761 0.075677 -0.056349 -0.612154 0.503279 -0.468436 -0.180641 -1.055392 0.552660 -0.694260
1186 -0.006342 -0.672459 0.422347 -0.309029 0.023904 0.157516 0.138662 -0.129451 0.007868 0.445273 -0.106433 0.014744 -0.192825 0.567099 0.298333 -0.270839 0.416571 0.005803 0.934102 0.105552 -0.137136 -0.612966 0.579710 -0.308549 -0.916660 0.547158 0.498364 0.043347 -0.094160 -0.113410 -0.757133 0.196335 -0.184684 -0.044096 -0.228679 -0.482796 0.194234 -0.060547 -0.035204 0.129822 0.096726 -0.606759 0.040812 -0.087370 -0.036310 -0.171415 0.075582 -0.144141 -0.299936 -0.176625 0.226514 0.004426 0.084435 -0.289746 -0.120742 -0.008653 -0.336906 -0.154598 0.190368 -0.153710 0.085821 -0.018157 -0.578093 -0.227659
629 0.236538 -0.166660 -0.965009 0.447381 -0.050218 0.534485 0.082387 -0.715710 -0.058043 -0.824973 0.420748 -0.209137 0.476381 -0.212641 -0.383173 0.977858 1.176783 -0.399385 0.809410 0.016187 -0.650402 -0.428390 0.127340 -0.009824 0.879829 0.120633 0.126342 -0.260625 -0.595103 -1.032347 0.701013 0.214306 0.806322 1.138113 -0.718096 -0.372879 -0.608652 0.220359 0.102376 0.667000 0.213004 0.514726 -0.444547 0.147925 0.799676 0.140607 0.221207 -0.576223 0.096860 0.237301 -0.656232 -0.250465 -0.670566 0.638126 -0.185574 0.392619 -0.530609 -0.641443 0.443176 -0.224447 0.275451 -0.878195 0.331917 0.839987
1228 0.617833 1.080943 -0.500085 -0.320286 0.377540 0.723427 -0.220419 0.091405 0.154604 -0.192954 -0.406037 -0.204016 -0.698731 0.704257 0.395864 0.002856 1.030329 -0.372131 -0.585722 -0.133231 -1.016557 -0.440113 0.970653 -0.463946 -0.316002 0.217427 -0.335595 0.392175 -0.709353 0.978980 1.733763 0.857005 -0.183091 0.242790 -0.301976 0.401240 0.408847 -0.529939 0.145616 0.064052 -0.357760 0.718804 0.119266 0.187000 -0.465656 -0.668298 -0.003869 -0.904674 0.557790 -0.416759 -0.245426 0.147342 0.240363 -0.575421 -0.269840 0.049095 0.541622 -0.254214 -0.132015 -0.568483 -0.737995 -0.501157 0.231331 0.266487
1166 -0.353768 -0.576022 -0.403708 -0.444533 0.992078 0.739174 -0.522325 -0.092798 0.477232 0.477760 0.723589 0.375780 0.257508 0.669202 0.373380 -0.465407 0.050479 -0.070278 0.694654 -0.130377 -0.658373 0.047911 0.524814 -0.173561 -0.431837 -0.060897 -1.019174 -0.124937 -0.077805 -0.969531 0.642117 0.342360 -0.110968 -0.099289 -0.343962 0.526802 -0.107826 -0.489819 1.234917 0.579652 -0.355900 -0.359460 1.018594 -0.616076 -0.472657 -0.134297 -1.381647 -0.210277 0.354825 0.149872 0.489574 -0.488605 -0.803597 0.619205 -0.864395 0.417196 0.046223 -0.065333 -0.387607 -0.393621 1.277141 0.676223 -0.393526 0.232912
1117 0.461028 -0.721976 0.110703 0.205109 -0.473721 0.525328 0.308820 -0.338489 -0.901021 -0.058670 0.079918 -0.007793 -0.055427 0.687141 -0.151921 0.353202 -0.537923 -0.553011 0.635094 0.322672 -0.004875 -0.514012 1.270812 -0.278032 0.633865 0.051372 -0.312924 0.738967 -0.088012 -0.799645 0.720161 -0.423672 0.184425 -1.113529 -0.336508 -0.207265 -0.703666 -0.295465 0.166119 -0.143417 0.067547 -0.490096 -0.105209 -0.358765 0.575752 0.116778 -0.733258 -0.593048 -0.722410 0.358753 0.365098 -0.451312 -0.741382 -0.824424 -0.056373 0.123733 -0.036945 -0.560067 0.162285 -0.028750 0.798375 0.098189 -0.176452 0.779752
56 1.178174 0.009932 -0.600493 0.184541 -0.137234 -0.644502 0.367434 0.620637 -0.768347 1.074294 -0.520253 -0.000773 -0.039210 0.043076 0.667903 -0.009774 -0.635003 -0.342476 0.316423 -0.437553 -0.288637 0.346616 -0.196849 1.225437 1.113146 -0.301628 0.421300 0.858684 0.764604 0.550647 0.288761 -0.278495 0.043961 -0.807883 -0.104537 0.235345 -0.738720 0.590792 -0.169842 -0.563553 -0.205179 1.224336 0.378943 -1.082722 -0.754260 0.399291 0.138076 0.335245 0.764841 0.364697 -0.147442 0.901059 -0.372668 -0.090558 -0.086935 -0.528290 -0.594893 0.533460 0.218910 -0.819205 0.020951 -0.210259 -0.360357 0.206257
48 0.375335 -0.414962 -0.324083 -0.348089 1.675949 -0.028876 0.569940 0.620493 -0.749900 0.171596 -0.217850 -0.357743 -0.759782 0.231738 -0.464484 -0.318655 0.686352 0.407242 -0.171033 -0.566682 -0.057409 0.727431 -0.110492 1.312799 1.018957 0.419730 -0.353163 -0.549743 0.700998 0.671263 0.524353 -0.280964 -0.177016 -0.406416 0.153572 -0.144991 0.877183 0.883097 -0.418328 -0.325573 0.885248 -0.426799 -0.099749 0.446354 -0.350157 -0.526443 -0.331826 -0.845974 -0.157674 0.210540 0.753440 -0.481403 0.597568 -0.122029 0.538891 -0.591256 -1.096325 1.150183 -0.363570 0.110542 -0.687531 0.304515 -1.002151 -0.379570
393 -0.886936 -0.465262 -1.108456 0.170930 0.766798 -0.323628 0.449986 0.800810 0.390544 0.684883 0.209483 -0.312034 0.661840 -0.438108 0.405441 -0.494406 -0.183474 -0.034103 -0.472705 0.022022 0.750114 -0.057006 -0.322523 -0.239468 1.130981 -0.111989 0.367879 0.177725 -0.018351 -0.769868 -0.567600 0.817555 0.020199 0.115401 -0.470648 0.470102 0.058949 -0.499580 -0.034871 -0.072524 0.560771 -0.796405 0.188290 0.181985 -0.428661 -0.320994 -0.570139 0.430613 0.351699 -0.037626 0.118051 -0.045312 -0.459783 0.131555 0.675945 -0.199079 0.290914 -0.228010 0.635156 -0.375140 1.092901 -0.000166 0.107966 0.064526
1242 -0.227555 0.437574 0.085102 0.345477 0.537631 -0.494256 0.304102 -0.181736 0.413476 -0.106403 -0.531284 0.588959 -0.787030 0.209803 -0.267243 0.729071 0.440090 0.687534 -0.283926 0.693665 -0.006358 0.012313 0.223926 -0.144618 -0.019335 0.224762 -0.266578 -0.229171 0.217426 0.427972 -0.536764 0.240861 0.396751 0.249893 -0.351243 -0.013731 -0.829906 0.061942 0.735602 -0.497979 0.096333 -0.537008 -0.216295 0.022582 -0.716480 0.428280 -0.765266 0.388497 0.885214 -0.218546 -0.060975 0.630438 0.934409 -0.000727 0.081970 -0.860893 0.174234 0.109042 0.423544 0.151172 -0.120804 -1.038502 0.230936 -0.124266
1197 -0.275113 -1.166095 0.313903 -0.125648 0.232277 -0.063595 0.218327 0.182193 0.238688 0.454424 0.053528 0.149820 -0.345467 0.763424 -0.060728 -0.392858 1.098568 -0.391929 1.151254 0.042860 -0.549828 -0.395095 0.025743 -0.891828 -0.928530 0.397474 0.361150 0.088385 -0.537131 -0.000289 -0.537060 0.115515 0.334451 -0.028643 -0.027683 -0.499479 0.192601 0.247787 -0.068169 0.018694 -0.234637 -0.747807 0.043297 -0.170988 -0.190506 0.359612 0.470565 -0.024444 -0.208064 0.424541 -0.027452 -0.253155 0.174935 -0.323835 0.251696 0.100116 -0.231637 0.124315 0.137908 -0.037084 -0.104585 0.228664 -0.093003 0.304416
1296 -0.157463 -0.960467 0.364693 0.066252 0.217925 0.033763 0.232210 0.194837 0.002105 0.005492 0.150739 0.054550 -0.423104 0.682850 -0.080594 -0.602372 0.656389 -0.332900 1.290932 0.312321 -0.677332 -0.301925 0.160320 -0.926152 -0.945255 0.459492 0.450740 -0.008800 -0.181957 -0.103076 -0.723422 0.083563 0.263010 0.033041 -0.184830 -0.722678 0.387523 0.088335 -0.131713 -0.002605 -0.232615 -0.712314 -0.116750 0.076647 -0.403229 0.591268 0.410730 0.040900 0.004673 0.355123 -0.305661 -0.277512 0.167803 -0.285357 0.210211 0.116614 -0.543932 0.305782 0.163925 -0.361582 -0.137446 0.258907 -0.050416 0.367843
1282 0.482339 -0.161282 0.798387 0.410196 0.053781 -0.241085 0.664692 -0.130292 -0.104842 -0.020131 -0.548628 0.185574 0.142205 -0.578912 0.390136 -0.025520 -0.130971 0.856063 0.517152 -0.252807 -0.510129 0.587539 0.539628 -0.545922 0.001807 -0.139884 0.431645 0.009109 0.073316 -0.715206 -0.194364 -0.556278 0.300178 0.561804 0.131371 0.195220 0.215498 -0.697647 -0.331696 0.485094 0.682702 -0.491705 -0.191973 -0.182160 0.695691 0.099918 -0.840669 -0.114158 -0.330314 0.266848 0.374033 0.377665 0.055634 0.646683 -0.450708 -0.669349 0.453237 0.049297 -0.343270 0.308237 0.536193 0.353864 0.351057 0.564327
383 -0.549031 0.052068 -0.938526 0.383303 -0.588347 0.317298 0.626629 0.526949 0.741239 0.228077 0.228507 -0.435449 -0.022534 0.410666 0.434903 0.155590 0.172142 -0.045446 0.372798 -0.040295 0.212470 1.027310 -0.459800 -0.327188 0.774406 0.290387 -0.131003 -1.044384 -1.033707 0.638166 -0.348024 0.670915 -0.345842 -0.531257 -0.016411 -0.700906 0.221182 0.569041 0.402308 -0.300375 0.457097 -0.303607 -0.386785 -0.415130 -0.506138 -0.848635 -0.464009 -0.398337 -0.432101 -0.493391 -0.882418 0.055552 -0.639020 0.349837 -0.016449 -0.563775 0.279314 -0.585479 -0.897363 -0.911514 -0.315330 -0.097976 -0.287010 0.465203
448 -0.692087 -0.431575 0.233810 -0.101065 0.104454 -0.028525 0.226869 0.507040 0.382393 0.719347 0.078938 0.137548 0.674212 -0.275634 0.190075 -1.002865 -0.358234 -0.130499 0.075652 -0.157459 0.438112 0.126128 1.034795 0.052360 1.218398 0.221251 0.831823 0.282684 -0.666417 -0.653723 -0.555970 0.066728 0.205936 -0.033088 -0.624754 -0.571379 -0.823078 0.695864 -0.036501 -0.144632 -0.142859 -0.357401 -0.411542 0.011040 -0.247078 -0.577065 -0.961909 0.123886 -0.892466 -0.980828 -0.470366 -0.130864 -0.297336 0.262882 0.276991 0.149351 0.245802 0.195068 0.570356 -0.303509 0.382610 -0.941803 0.416632 0.217266
183 -0.829800 -0.484396 1.026904 -0.004957 -0.072512 -0.019814 -0.439431 -0.389627 0.094924 -0.496655 -0.951737 0.752323 0.262237 0.476828 -0.513249 -0.253993 -1.015558 0.504133 0.953128 0.273600 -0.369165 -0.657535 0.059717 0.325021 0.018861 0.194925 -0.488021 -0.246096 0.105106 -0.719560 -0.117216 -0.595506 0.067076 -0.445710 -0.801088 -1.104512 -0.099154 -0.212277 -0.151550 -0.087736 0.118716 -0.026557 -0.803976 0.357457 0.019805 -0.377596 -0.602427 -0.120358 -0.106176 0.161118 0.402393 -0.629377 -0.398800 0.153705 0.121314 -0.056200 0.064672 0.179089 0.269472 1.092335 -0.551981 0.224807 -0.060048 -0.270678
112 0.069880 -0.196918 0.110732 -0.017675 -0.185515 0.126428 0.121791 -0.836741 -0.097046 -0.105733 -0.610493 0.364562 -0.333458 0.024766 -0.999613 0.637314 0.409372 -0.265367 0.298382 -1.192040 -0.350841 -0.387315 0.216145 0.183068 0.573757 -0.001168 -0.648805 0.162770 -1.048010 -0.324344 0.725742 -0.667481 0.804195 0.319602 0.185628 -0.535987 -0.666650 0.142135 0.223911 0.121834 -0.355189 0.075722 -0.054096 0.511411 -0.205995 -1.132083 -0.049490 -0.297411 -0.179353 -0.118666 -0.220490 -0.564384 -0.633700 0.677888 -0.709816 0.642455 -0.562510 -0.348390 0.081726 -0.650120 0.295626 -0.838057 0.157279 0.816332
1036 -0.094847 -0.966057 0.250123 -0.115483 0.290161 0.002085 -0.200874 0.179821 0.429634 0.347346 0.299044 0.075517 -0.341518 1.034933 0.039739 -0.533532 0.847959 -0.190509 1.179623 0.245076 -0.741595 -0.419329 0.145815 -0.692682 -1.072541 0.352657 0.552989 -0.149741 -0.398384 -0.091513 -0.693565 0.363624 0.370034 -0.015112 -0.183972 -0.748611 0.160798 0.289669 0.109302 -0.206671 -0.338995 -0.559890 -0.041239 0.062714 -0.445929 0.203273 0.204238 0.021973 0.032495 0.354905 -0.051573 -0.202303 0.185732 -0.367103 0.221576 0.413662 -0.106626 0.206653 -0.020553 -0.012180 -0.061706 0.145290 -0.274796 0.384616
770 0.122486 -0.250790 0.872219 0.636930 0.090984 -0.071937 0.422482 0.141461 -0.321592 0.233937 -0.725979 0.050031 0.097733 -0.563483 0.233664 0.160799 0.038064 0.795341 0.507787 -0.437527 -0.742982 0.627951 0.469857 -0.530499 0.075813 -0.242981 0.807793 -0.099661 0.281291 -0.155502 -0.132392 -0.276950 0.401913 0.481060 0.284261 0.423900 0.354047 -0.702568 -0.392368 0.366906 -0.207913 0.131135 -0.151986 -0.053525 0.545232 0.224418 -0.641952 -0.096326 0.419821 0.489484 0.162660 -0.193112 -0.086687 0.537304 -0.144953 -0.621679 -0.090172 -0.055185 -0.066426 0.188523 0.548826 0.365662 0.212417 0.875633
610 -0.205571 -0.717397 0.308820 -0.182344 0.373904 0.011120 0.009787 -0.119936 0.303748 0.505282 0.514624 0.012261 -0.209992 0.797800 -0.137726 -0.434062 0.928752 -0.228975 1.039932 0.282421 -0.470092 -0.327596 0.302100 -0.849194 -0.878427 0.327714 0.530705 0.324852 -0.386229 0.023401 -0.750738 0.057833 0.123667 -0.011038 -0.176650 -0.620619 0.315589 0.204572 0.089346 -0.011335 -0.211093 -0.855037 0.051193 -0.050417 -0.186308 0.181406 0.264982 -0.119997 -0.002470 0.278599 -0.125531 -0.181471 0.261484 -0.212472 0.057471 0.327877 -0.523803 0.208915 0.348629 -0.181943 -0.220830 0.261143 -0.333017 0.219117
434 0.192307 -0.562638 0.846060 0.716260 0.014862 -0.221685 0.511466 -0.067240 0.143559 0.072781 -0.312385 0.220501 -0.061830 -0.512680 0.278316 0.013569 -0.181440 1.005867 0.514565 -0.377683 -0.465754 0.697150 0.626911 -0.607020 -0.087690 -0.598141 0.516716 0.153931 0.516057 -0.196411 0.114986 -0.571912 0.271623 0.656842 0.574354 -0.470600 0.195005 -0.950323 -0.144499 0.476531 0.170209 -0.261202 -0.311392 -0.217230 0.676647 0.179060 -0.589062 0.153949 -0.015918 0.388234 0.194424 0.088237 -0.065514 0.836130 -0.549014 -0.796130 0.409718 0.231135 -0.025189 0.256295 0.447618 0.484954 0.301005 1.278892
584 -0.216638 -0.774191 0.457000 -0.203500 0.244972 -0.190361 -0.154129 0.121293 0.150246 0.392293 0.205360 0.186370 -0.250940 0.877461 0.087140 -0.545647 0.955307 -0.500358 1.103026 0.277640 -0.371653 -0.495325 0.091152 -0.924240 -0.837898 0.250430 0.496264 0.142876 -0.429890 -0.120333 -0.756057 0.161689 0.199361 0.015510 -0.097076 -0.434583 0.452169 0.209073 -0.059316 0.076146 -0.311227 -0.598102 -0.135969 0.198250 -0.201828 0.292829 0.375749 0.035901 0.016581 0.306003 -0.083182 -0.226704 0.225392 -0.415105 0.429663 0.252999 0.020092 -0.003850 0.270102 -0.350749 -0.102706 0.355929 -0.357378 0.407719
699 -0.150265 -0.647075 0.335661 -0.000276 0.137553 -0.079631 0.261857 0.221847 0.179983 0.240728 0.250411 -0.116449 -0.594985 0.924200 -0.003763 -0.413442 0.642622 -0.200518 1.250932 0.436199 -0.557029 -0.415367 0.334629 -1.069542 -0.786368 0.279846 0.734526 -0.076313 -0.360110 0.024408 -0.555779 0.076077 0.246936 -0.035696 -0.260957 -0.633117 0.364654 0.437141 0.312063 -0.052006 -0.341488 -0.521109 -0.101639 -0.179051 -0.154269 0.353974 0.192940 -0.179350 -0.172683 0.105134 -0.059665 -0.048843 0.061220 -0.481482 0.178684 0.237596 -0.344247 0.295974 0.107558 -0.472818 -0.209160 0.550721 -0.208365 0.195101
563 -0.974376 -0.195166 -0.628145 -0.441270 0.391859 -0.777472 0.518472 0.563114 -0.041990 1.045823 0.394279 -0.744713 0.173192 -0.466344 0.155805 -0.267197 -0.367013 0.651718 0.119743 0.635203 0.889995 -0.924756 0.991284 0.118110 1.522570 0.163632 0.026319 0.670104 -0.471050 -0.092394 -0.135577 0.327049 -0.343717 -0.187737 -0.498810 -0.299109 0.372822 0.217034 0.520099 0.308233 -0.428856 0.590799 0.533252 0.625483 -0.339107 0.506353 -0.457194 -0.242354 -0.012004 -0.183263 0.577909 -0.019099 -0.498931 0.417782 0.954084 -0.532579 0.852239 -0.250588 0.393069 -0.074298 0.139575 0.367057 0.413995 0.658873
400 0.286034 0.745127 -1.086880 0.750653 -0.106663 0.415523 -0.264365 0.087218 -0.762841 0.604558 -0.056124 0.095940 -0.117528 0.127201 0.399439 -0.516128 -0.363026 -0.524851 -0.073225 -0.300045 0.683443 -0.180085 0.284248 0.326706 0.918406 0.565233 0.827317 -0.369094 -0.055961 0.348333 0.549000 0.067316 0.223049 0.022182 0.338405 -0.141093 -0.703370 -0.022148 -0.460042 0.019450 -0.422970 0.688243 1.046092 -1.031209 -0.928864 1.600242 -0.027650 -0.420923 -0.014965 0.299221 -0.410615 0.819795 -1.103460 -0.737762 0.369207 0.299596 -0.299985 0.067914 0.385135 0.237660 -0.419354 0.254546 0.620344 -0.547809
779 -0.080644 -1.008977 0.533365 -0.169837 0.142155 -0.128790 0.036971 0.235962 0.239851 0.406261 0.423620 -0.045972 -0.042339 0.917456 -0.056540 -0.686041 0.755862 -0.268266 1.317616 0.117501 -0.533556 -0.428113 0.304777 -0.858371 -0.803394 0.224213 0.543906 0.292349 -0.396066 -0.097749 -0.839295 0.356220 0.218805 0.044618 -0.170630 -0.479152 0.286353 0.283216 0.096405 0.032086 -0.222420 -0.601273 0.046214 0.033898 -0.392568 0.370173 0.320936 -0.017076 -0.094830 0.495115 -0.115965 -0.014887 0.165285 -0.272792 0.258981 0.367628 -0.334823 0.336814 0.142305 -0.162553 -0.161548 0.271701 -0.272621 0.133123
560 0.288268 -0.432533 -0.634112 -0.376423 0.303185 -0.755206 0.325981 0.474046 0.295964 0.068510 0.692745 -1.242891 0.223073 -0.675004 0.726297 0.079510 -0.184513 -0.181746 -0.676750 -0.702699 0.286583 -0.604835 -0.023593 0.596587 0.196109 -0.069034 0.306726 0.824212 -0.134938 -1.178350 0.031257 -0.090471 -0.254554 -0.209183 0.762258 -0.835719 -0.454361 0.477264 0.353452 0.223265 -0.430769 0.374836 1.034957 0.146567 -0.801116 -0.321937 -0.624845 0.356494 -0.384175 -0.228926 0.104762 -0.319756 -0.479762 -0.007749 0.868350 0.191355 0.413679 -0.681463 0.615657 -1.286850 1.137286 -0.449492 -0.177235 0.208139
639 0.262607 0.259850 -0.377957 0.605138 -0.097179 0.408565 -0.105574 -0.359993 0.063418 -0.075696 -0.349821 -0.430786 -0.063848 0.602370 0.379137 -0.280978 0.097801 -0.377441 -0.192538 0.009783 -0.410218 -1.193120 1.012478 -0.389478 0.075121 -0.105187 0.135327 0.151182 -0.805474 1.071068 0.555451 0.339395 -0.074086 0.547036 -0.478362 0.183687 0.296077 0.157224 0.081630 -0.443231 -0.054556 1.036476 0.165616 0.897762 -0.080774 0.127985 0.451884 -0.951567 0.316960 -0.011181 0.009214 0.204293 0.859052 0.275931 0.177118 0.014833 -0.025451 -0.792480 0.289614 -0.722739 -0.271739 -0.580687 0.438074 -0.745210
1126 -0.110939 -0.978966 0.364923 -0.140283 0.218434 -0.223300 0.074343 0.183295 0.312080 0.296413 0.225587 0.074830 -0.088059 0.952392 0.036149 -0.576339 0.685175 -0.174175 1.224111 0.358765 -0.631956 -0.400240 0.320256 -0.751873 -0.979513 0.334513 0.492771 0.211188 -0.415229 -0.125804 -0.824727 0.270596 0.177608 0.093517 -0.077135 -0.710911 0.324727 0.295829 0.228414 -0.203126 -0.269984 -0.531062 -0.135396 0.052785 -0.550500 0.436783 0.281556 -0.024611 -0.093528 0.396267 -0.022532 -0.022984 0.147928 -0.268702 0.311542 0.401687 -0.023109 0.440954 0.063091 -0.088333 -0.147429 0.199201 -0.199837 0.156891
1120 -0.482318 -0.003985 -0.936231 0.323924 -0.205844 0.392102 -0.183703 -0.578059 -0.121144 -0.291205 0.120088 0.008101 0.234207 -0.331232 -0.740217 0.850499 1.039639 -0.477593 0.832259 -0.484991 -0.721449 -0.641815 -0.211660 -0.087553 0.763627 0.127106 -0.336584 0.063581 -0.847110 -0.516436 0.489600 -0.481019 0.554422 0.675824 0.140135 -0.351908 -0.466111 -0.079985 0.560221 0.334671 -0.144979 0.431932 -0.207468 0.194891 0.390589 -0.278491 0.280344 -0.009797 0.162608 0.252974 -0.707645 -0.101341 -0.276926 0.574979 -0.554136 0.579720 -0.513687 -0.502018 0.361829 -0.150042 0.599862 -0.494982 0.466299 0.845690
539 -0.190031 -0.774077 0.437309 -0.144616 0.365452 -0.118640 0.053764 0.064885 0.214100 0.371892 0.367102 0.052879 -0.180935 0.911951 -0.094114 -0.577792 0.774019 -0.320590 1.144500 0.252156 -0.474398 -0.306213 0.386751 -0.892490 -0.784549 0.318216 0.471722 0.130494 -0.345820 0.004588 -0.817500 0.118164 0.207627 0.046070 -0.084661 -0.513570 0.295203 0.205400 0.011757 -0.006396 -0.213998 -0.753999 -0.035417 -0.034913 -0.283173 0.426576 0.206941 -0.063445 -0.151129 0.287267 -0.070836 -0.070956 0.205097 -0.274587 0.153699 0.360194 -0.338975 0.171758 0.265704 -0.320407 -0.155109 0.314041 -0.385955 0.255029
969 1.532084 0.254907 0.727630 0.970901 -0.770502 0.463761 -0.001313 0.824279 0.359015 -0.618068 -0.332463 0.310704 -0.205781 -0.238559 0.161617 0.032313 0.715726 -0.106992 0.396639 0.474852 0.411473 -1.273366 -0.221250 -0.291666 0.835166 0.257096 0.447532 0.151239 -0.158498 -0.516432 0.047518 0.059134 0.083718 -0.479728 -0.601475 -0.095533 -0.438291 -0.325515 0.764093 -0.379543 -0.035292 -0.888187 1.176721 0.362143 -0.336903 -0.046617 -0.890795 -0.230299 0.273134 0.836556 0.062747 -0.078129 0.412232 -1.481180 0.753387 -0.467492 0.056355 -0.163952 0.577327 -0.068680 0.060664 0.082364 -0.088721 0.375447
1002 0.146052 -0.366856 0.840175 0.581718 0.018132 -0.037916 0.586719 0.109662 0.238109 0.017884 -0.460682 0.113865 0.193263 -0.788518 -0.019617 -0.185604 0.099640 1.206772 0.436844 -0.340098 -0.547728 0.394278 0.393262 -0.456799 0.093854 -0.232063 0.391572 0.004756 0.151305 -0.302424 -0.030308 -0.367086 0.250077 0.444415 0.466161 -0.011160 0.115440 -0.720239 -0.428064 0.205177 0.230970 -0.194257 0.209912 -0.105770 0.747545 0.339212 -0.824351 0.087184 0.186482 0.470238 0.210823 0.144889 0.211654 0.745723 -0.373684 -0.610622 0.053349 0.257477 -0.199551 0.173759 0.430189 0.520262 0.352584 0.938505
965 0.261345 -0.427009 0.732809 0.350543 0.077548 -0.002081 0.365589 -0.386250 0.016315 -0.120002 -0.306966 -0.101447 0.086467 -0.801405 0.327126 -0.241054 0.034340 1.202671 0.524083 -0.353588 -0.629848 1.036836 0.434123 -0.722984 0.064285 -0.399759 0.440512 -0.119721 0.214313 -0.490535 0.163783 -0.265106 0.221097 0.238195 0.275968 -0.158571 0.321111 -0.534403 -0.300362 0.594279 0.201317 -0.293088 -0.051497 0.073764 0.448374 -0.136447 -0.531302 0.160736 0.142666 0.259408 0.107275 -0.106798 0.262040 0.723873 -0.423213 -0.791654 0.244520 0.042472 -0.263094 0.630304 0.672538 0.519620 -0.040330 0.991617
285 -1.171923 -0.845413 0.292086 0.048718 0.406579 -0.381816 0.368425 0.302388 0.166601 -0.720362 -0.055479 0.657529 -0.218356 -0.251527 0.125506 0.786036 0.281020 0.200933 0.536482 -0.292720 -0.088770 -0.773141 0.459419 0.156276 -0.530128 0.549689 -0.371302 -1.371244 -0.376529 -0.251825 -0.128648 -0.202161 -0.036165 0.181017 0.134956 -0.247071 0.666419 0.307864 -0.616218 0.652153 -0.599600 0.378624 0.201760 0.976408 0.102341 0.325832 -0.577434 0.021339 0.418932 0.342574 -0.153147 -0.094847 0.469654 0.284760 -0.668769 -0.474176 -0.769651 -0.341198 -0.273059 -0.816840 0.363708 0.662012 0.813043 -0.850291
831 -0.209513 -0.967160 0.657824 -0.245237 0.253789 -0.085381 -0.123583 0.062442 -0.006873 0.505104 0.072940 -0.191127 -0.342840 0.782649 0.134333 -0.617752 0.715312 -0.288343 1.155573 0.346832 -0.450106 -0.380929 0.170597 -0.814145 -0.849287 0.293806 0.629009 0.079781 -0.377108 -0.080919 -0.798657 0.179893 0.132968 0.041569 0.071555 -0.347518 0.235794 0.060572 -0.077137 0.101923 -0.231587 -0.710237 -0.030352 -0.015655 -0.374095 0.313895 0.328332 -0.251363 -0.182912 0.172938 -0.074568 -0.085522 0.073442 -0.212119 0.356158 0.233588 -0.092440 0.226332 0.286588 -0.137300 -0.102317 0.183334 -0.319334 0.145121
414 -0.081940 -0.848553 0.539401 -0.112612 0.171665 -0.020830 -0.056815 -0.178992 0.166635 0.386473 0.198846 0.013300 -0.437574 0.907109 -0.086936 -0.557576 0.820573 -0.278637 1.289409 0.295576 -0.383170 -0.406198 0.307802 -0.818729 -0.771667 0.301423 0.513048 0.146353 -0.366070 -0.131117 -0.614479 0.057569 0.371321 -0.116606 -0.086776 -0.562184 0.382692 0.280477 -0.009795 -0.082724 -0.099484 -0.679640 -0.185820 -0.072867 -0.327859 0.353605 0.335222 -0.013571 -0.067058 0.308761 -0.081571 -0.117067 0.158115 -0.408472 0.251676 0.392735 -0.279982 0.243817 0.264803 -0.236247 -0.173730 0.384437 -0.122602 0.242570
1012 -0.147068 -0.812023 0.313119 -0.228712 0.243063 -0.005024 0.040942 0.008227 0.279642 0.397461 0.260815 -0.003863 -0.405604 0.736208 -0.045289 -0.531130 0.806334 -0.330910 1.209648 0.268019 -0.444259 -0.348861 0.235788 -0.868545 -0.731009 0.396313 0.382211 0.045092 -0.413037 -0.030734 -0.747540 0.100819 0.282066 -0.035764 -0.119287 -0.547339 0.266501 0.127550 0.058070 -0.058424 -0.297126 -0.703559 -0.093915 -0.135371 -0.279546 0.312615 0.320526 -0.114043 -0.042830 0.305473 -0.144742 -0.177072 0.239268 -0.341465 0.148657 0.230352 -0.358942 0.248385 0.240951 -0.360794 -0.226965 0.306485 -0.310232 0.378940
1005 -0.169332 -0.905202 0.538168 -0.243067 0.253544 -0.147585 -0.016565 0.021291 0.167525 0.514273 0.177131 -0.010764 -0.227139 0.744545 0.053541 -0.604938 0.827034 -0.391218 1.051053 0.294447 -0.340105 -0.281712 0.183874 -0.858175 -0.771680 0.305067 0.389732 0.040818 -0.393482 0.011441 -0.774976 0.151997 0.171379 0.029425 -0.024882 -0.311158 0.273459 0.112245 -0.130821 -0.054242 -0.219543 -0.687879 -0.017444 -0.199027 -0.354167 0.426222 0.273518 -0.274954 -0.251991 0.263176 -0.120242 -0.050960 0.254083 -0.328461 0.325233 0.199641 -0.302011 0.203219 0.304652 -0.119516 -0.102766 0.203680 -0.262964 0.301574
89 0.687958 -0.944126 0.933285 0.023900 -0.275001 0.131515 1.093135 0.932518 -0.673548 -0.358395 0.230491 -0.232671 -0.240258 -0.602583 -0.003562 -0.602408 -0.110863 -0.587792 0.736074 0.441979 0.254029 -0.423464 -0.762788 0.844137 -0.230356 -0.380651 0.081317 -0.463120 0.150926 0.031579 -0.070989 -0.853456 0.910332 -0.489248 -0.349873 -0.303011 0.534041 -0.318780 0.434013 0.012933 0.532988 0.459651 0.637201 -0.023523 0.517735 -1.500576 -1.049592 0.079020 -0.260631 0.890111 -0.335487 0.215683 0.361789 -1.403148 0.372068 0.675554 -0.093820 0.995737 0.854460 -0.400330 -0.130512 0.566909 -0.631499 0.115098
510 -0.109327 -0.821551 0.461027 -0.199511 0.230531 -0.119374 -0.016767 -0.052172 0.199346 0.365449 0.142044 0.003954 -0.329548 0.777518 -0.068638 -0.558498 0.875513 -0.259339 1.193373 0.204682 -0.364928 -0.351384 0.371688 -0.836693 -0.824416 0.378575 0.415837 0.115108 -0.398106 -0.174875 -0.711785 0.134045 0.255689 -0.003790 0.044731 -0.564807 0.276945 0.124223 0.077786 -0.058537 -0.225994 -0.753823 -0.106560 -0.046545 -0.331987 0.424048 0.307068 -0.108585 -0.074990 0.325149 -0.160882 -0.113561 0.206722 -0.268425 0.233707 0.161737 -0.247193 0.288892 0.204287 -0.354299 -0.103847 0.259258 -0.189469 0.263188
1123 0.035977 0.392824 -0.120190 0.230432 1.473701 0.440135 -0.129142 0.631452 -0.062708 -0.607066 -0.158302 -0.434191 0.859407 0.341244 0.710071 -0.412433 0.530710 0.180026 -0.001779 -1.238735 -0.337901 0.048747 0.304838 0.109708 -0.594239 0.586862 -0.786289 1.777180 -0.046271 -0.109147 0.344554 -1.044520 -0.000257 -1.076063 -0.703889 1.425059 -0.241803 0.271201 0.476469 0.679174 0.653519 -0.230106 -0.174894 -0.229385 0.293145 0.056322 -0.002498 -0.551059 0.119461 0.491995 0.315282 0.152366 0.546744 -0.241310 -0.224580 -0.111804 0.567823 0.595881 0.285766 -0.343519 0.088825 0.221811 0.616728 0.667513
745 -0.139894 -0.766219 0.354700 -0.066444 0.279640 -0.130205 0.093252 0.135044 0.172679 0.456852 0.308085 0.005704 -0.312085 0.812429 -0.033017 -0.586477 0.894199 -0.277476 1.214114 0.199006 -0.440610 -0.422967 0.303085 -0.702765 -0.795965 0.411937 0.431283 0.109858 -0.415460 -0.201647 -0.776774 0.141117 0.146770 0.033200 -0.183801 -0.617477 0.310966 0.067145 0.025547 0.014879 -0.204437 -0.866083 -0.069451 -0.065101 -0.190738 0.325540 0.300983 -0.134793 -0.102246 0.284754 -0.129861 -0.151946 0.282815 -0.198772 0.143291 0.183330 -0.280510 0.229567 0.305361 -0.219834 -0.106368 0.278709 -0.252998 0.242581
644 0.265126 -0.340426 -0.025217 -0.962847 0.206353 0.268178 -0.585197 -0.115266 -0.472275 0.047222 -0.244175 0.724125 0.349899 -0.144515 -0.287364 0.181904 0.088342 0.001762 0.069478 0.366492 0.213262 0.186080 0.190491 -0.831357 0.277580 -0.713311 -0.264738 -0.060392 -0.108550 0.616997 -0.505825 0.287283 0.640167 0.431469 -0.842445 -0.562935 -0.291382 -1.002097 -0.227293 0.434334 -0.123207 0.387603 0.124459 -0.505024 -0.311700 -0.408045 0.358018 0.037992 0.047171 0.192042 0.115682 -0.177522 0.133552 -0.377874 -0.567068 -1.291202 0.325462 -0.155051 -0.510176 -0.417863 -0.217746 -0.248883 -1.087201 0.203602
1169 -0.097625 0.240860 -0.246415 -0.183902 -0.729141 0.529447 -0.229473 0.263329 -0.086693 -0.293527 -0.086995 1.121560 0.494248 0.633895 -0.163129 0.545310 -0.334749 0.443042 0.467854 0.363296 0.709984 0.393326 0.193999 -0.793990 -0.764111 0.321708 -0.224960 0.478440 0.331692 -0.538504 0.451555 0.029960 -0.262268 0.313028 -0.623539 -0.632783 -0.098524 0.089442 0.767318 0.278740 0.358717 -0.220081 0.230757 0.254010 -0.088782 -0.614646 -0.924216 -0.449816 -0.054219 0.453595 0.445458 -0.336412 -0.684842 -0.265654 -0.285655 -0.166636 -0.443861 -0.117341 0.056669 -0.062981 -0.155464 0.366668 0.100005 -0.091646
333 -0.460522 0.725293 0.098774 0.253700 -0.871913 0.138955 0.606806 0.350882 0.696089 0.200936 -0.182021 -0.769431 0.394693 0.585412 -0.108036 0.024051 -0.227570 -0.219250 -0.043382 0.249358 -0.128736 1.007207 0.251094 0.098994 0.053765 0.230329 -0.200392 -0.649407 -0.369523 0.754289 -0.151866 0.944357 -0.497463 -0.787266 -0.394297 -0.294555 -0.079191 0.308813 0.048814 -0.414806 0.305981 -0.253437 -0.496437 -0.046050 0.267250 -0.669848 -0.452162 -0.621682 -0.480901 -1.052516 -0.855822 0.065585 -0.493712 0.158463 -0.311162 -0.021863 1.100576 -0.343324 -1.279432 -0.462768 -0.359337 0.046879 -0.068004 0.418824
626 0.403567 0.552461 -0.374392 0.297321 -0.093317 0.569637 0.065319 -0.235467 0.014292 -0.233134 -0.499199 -0.335764 0.087217 0.791263 0.373440 -0.303989 0.035612 -0.134312 -0.551683 0.000346 -0.519600 -0.958718 0.967281 -0.257739 0.065921 -0.199538 0.275176 0.312207 -0.809160 0.579886 0.757835 0.118685 0.164712 0.789442 -0.462351 0.342876 0.539988 0.332412 -0.008829 -0.379129 0.079502 0.863854 0.084878 0.981506 -0.235319 -0.066915 0.554366 -0.677382 0.540997 -0.161683 -0.183966 0.014838 0.843245 0.038854 0.107600 0.194837 0.006047 -1.000790 0.286463 -0.574371 -0.282569 -0.752400 0.348968 -0.644963
150 0.472934 0.400502 -0.198595 0.459733 -0.316783 0.585348 0.087060 -0.060685 0.127187 -0.219815 -0.396650 -0.356064 0.116868 0.589857 0.478297 -0.316537 -0.022890 -0.251323 -0.452085 -0.076850 -0.536146 -1.108426 1.000180 -0.161157 0.030065 -0.181842 0.400082 0.127926 -0.907435 0.471686 0.730287 0.190508 -0.052038 0.785941 -0.507962 0.207923 0.657106 0.376009 0.046882 -0.412167 0.067255 0.905481 0.214555 0.685840 -0.190214 0.094710 0.632751 -0.793217 0.308837 -0.136438 -0.067743 -0.024992 0.790761 0.160398 0.075045 0.094273 -0.059526 -0.910696 0.273076 -0.530874 -0.277671 -0.829082 0.452790 -0.796712
1180 -0.354383 -0.393006 -0.101970 -0.150820 0.422582 0.136466 0.274808 -0.151730 0.820568 -0.679668 -0.103668 0.712991 -0.105272 0.326917 0.378329 -0.120954 -0.141115 0.359124 -0.602034 0.504520 0.692056 0.444526 -0.413640 -0.749993 -0.445359 -0.116668 0.323027 0.079459 0.469639 0.568655 0.807613 -0.413598 0.647713 -0.647774 -0.726939 0.208596 -0.732533 0.838464 -0.051402 -0.292540 1.344698 0.435949 0.252311 0.136144 -0.290417 -0.473740 0.173560 -0.030713 0.015345 -0.359785 0.849869 -0.658877 0.498749 0.119149 -0.069976 0.521780 -0.464475 0.157921 -0.086592 -0.208684 0.302668 -0.540181 0.178880 -0.172699
709 -0.003472 0.011916 -0.366997 -0.233841 -0.164024 0.337133 0.250138 0.058168 0.525763 -0.377151 0.563932 0.597470 0.090990 -0.465099 0.064412 0.262791 -0.372302 0.131945 0.254371 0.463122 0.394604 0.342530 0.289928 -0.275608 -0.231447 0.383430 -0.169849 -0.022755 -0.631486 -0.598023 -0.100150 -0.230151 -0.201738 0.932380 -0.106763 0.370814 -0.157832 -0.080958 0.110957 -0.506189 -0.941508 -0.613980 -0.592330 -0.613819 -1.043350 -0.593794 -0.725244 -0.284037 -0.300512 -0.265720 0.405292 -1.029531 -0.180478 -0.484685 0.060765 -0.441790 0.335521 -0.168104 -0.231540 0.502275 0.177535 -0.878304 -0.123911 -0.527948
528 -0.156664 -0.715669 0.429250 -0.214909 0.252319 -0.171363 0.054840 -0.034381 -0.035858 0.401860 0.373861 0.023515 -0.318084 0.838366 -0.083324 -0.537836 0.917536 -0.237636 1.220924 0.449369 -0.370304 -0.470850 0.324155 -0.762819 -0.852988 0.310940 0.489888 0.111737 -0.328868 -0.034350 -0.623403 0.117303 0.162001 -0.092636 -0.055996 -0.606158 0.387221 0.114034 0.050613 0.026063 -0.179198 -0.789478 -0.054279 -0.049072 -0.321955 0.224067 0.294887 0.027244 -0.073357 0.226085 -0.158621 -0.135990 0.147359 -0.307903 0.116403 0.213970 -0.263954 0.235582 0.187702 -0.295759 -0.101046 0.316108 -0.249830 0.166758
1240 -0.637716 0.509282 -0.764416 0.158491 0.616376 0.294517 -0.492046 0.314502 -1.094707 -0.484982 0.120254 -0.396265 0.623225 0.854564 0.249224 -1.047665 -0.254941 0.622639 -0.306306 -0.534810 0.313843 0.026038 0.645552 -0.346785 -1.213691 0.199756 -0.424843 0.104323 0.101126 0.411492 0.021473 -1.298088 -0.073695 -0.331569 0.108912 0.334841 -0.213579 -0.255970 1.280778 -0.421503 0.450919 -0.349050 -0.032977 -0.378970 1.006807 0.397738 0.746447 -0.802168 0.798317 -0.359792 -0.032671 0.290660 0.003924 0.575584 -0.304546 -1.087329 1.056142 0.581327 0.256767 0.833194 -0.308919 0.269526 -0.210654 -0.473133
4 -0.035051 0.323020 0.001405 0.316344 -0.850145 0.101342 0.194822 0.801981 -1.017664 0.229547 -0.357459 0.416234 0.491085 0.504006 0.346594 -0.530406 0.827313 -0.149719 -0.102883 -0.371067 -0.709099 -0.994546 0.815966 -0.038869 -0.398752 0.357839 0.469901 -0.070938 -0.864692 1.096541 0.033910 -0.067552 -0.128206 0.538761 0.784772 0.316861 -0.033381 0.493257 -0.237881 -0.893754 0.513261 0.072808 -0.176165 0.977846 0.172874 -0.985278 0.364145 -0.239504 -0.001454 0.189512 -0.983600 0.160667 0.041668 0.176030 0.107178 -0.622657 0.662466 -0.481043 0.900836 -0.391405 -1.000699 -0.978812 0.844302 -0.974841
267 0.319150 -0.259562 -0.305656 0.070941 0.213489 0.317659 0.260861 -0.407248 0.338576 -0.101502 0.125043 0.410696 -0.082302 -0.114123 -0.112754 0.006026 -0.026302 -0.586233 -0.099573 -0.145494 0.237171 -0.266298 0.859853 -1.227105 1.334862 0.484684 -0.631288 0.533253 -0.098345 -0.495211 0.021440 0.636029 -0.008553 0.734323 -0.325475 0.934484 0.901551 0.311799 0.244158 0.034549 0.468518 -0.637984 -0.302881 -0.200514 -0.778531 0.427276 0.244458 -0.241746 -0.044567 -0.721865 0.274627 -0.182751 -0.204621 -0.277735 -1.142449 -0.095986 -0.164382 -0.140260 -0.692471 0.161064 0.390568 0.327300 0.520596 -0.808214
1288 -0.082576 1.016503 0.128939 0.134589 0.112591 -0.528754 -0.447771 0.439416 -0.715092 -0.390110 -0.001748 0.388765 -0.239857 -0.201633 -0.437057 0.115449 0.989955 -0.233476 -0.081111 -0.433328 -0.012992 0.139852 0.049589 -0.104989 -0.216918 -0.057469 0.072626 -0.308520 0.613132 0.190173 -0.422983 0.177910 -0.256991 -0.410706 -0.795937 -0.006401 -0.688577 0.483993 -0.140821 -0.267438 0.505393 0.312587 0.134357 0.003077 -0.225139 0.158740 0.625222 0.106898 -1.040787 -0.626429 0.175902 -0.124720 0.341988 -0.065303 0.048218 -0.567681 0.219194 -0.445442 -0.281072 1.083062 0.489205 -0.754570 0.075177 -0.260046
1042 -0.182588 -0.020509 0.777263 -0.239009 -0.303212 -1.317868 0.622568 0.276007 0.969083 -1.153627 -0.096018 0.792547 -0.326873 -0.162384 -0.275555 0.500183 0.761801 -0.158948 -0.095092 0.285216 0.322473 -0.350442 -0.327143 -0.775280 -0.345299 -0.372906 -0.178791 0.063811 1.065039 0.308652 0.014653 0.373109 0.422029 -0.369704 -1.068829 0.680086 -0.522885 -0.175184 0.572793 -0.247473 0.697616 0.498318 -0.105500 -0.379629 -0.738148 0.587504 -0.082114 0.286577 0.134476 -0.167497 0.159450 -0.239400 -0.180756 0.129390 0.359780 -0.983175 0.752449 -0.083403 0.359665 0.714919 0.122592 -0.697945 0.290676 0.215253
1062 -0.034201 -0.334192 -0.204455 -0.706338 0.037307 0.341442 -0.364606 -0.344887 -0.587591 -0.179257 -0.020097 0.759612 0.482414 -0.151353 -0.554748 0.564528 0.068761 -0.123876 -0.457854 0.232023 0.188554 0.216919 -0.138623 -0.701966 -0.059730 -0.955661 -0.170249 0.001186 -0.222135 0.693525 -0.451533 0.002096 0.602835 -0.004169 -0.310086 0.211769 -0.193943 -1.003512 -0.005226 0.350848 -0.104671 0.216574 0.330901 -0.233116 0.129969 -0.221091 0.672255 0.159569 -0.020236 0.172913 -0.303768 -0.599759 -0.148123 -0.182875 -0.690450 -0.967776 0.140420 -0.195968 -0.502810 0.160009 0.126391 -0.125445 -0.928970 -0.155308
1076 0.882414 -1.225877 0.842525 -0.606439 -0.027451 0.239262 0.927381 1.299945 -0.094475 0.007871 -0.448774 0.033228 -0.183406 -0.188168 0.136692 -0.289449 0.616870 -0.448307 -0.286933 0.606456 0.185185 -0.314827 -1.334974 0.756634 0.191996 -0.296810 -0.036384 -0.320028 0.362111 0.313874 0.293691 -0.796503 0.875355 0.469785 0.223955 0.452730 -0.784631 -0.020422 0.442909 -0.265775 -0.145184 -0.292224 1.241554 -0.335692 0.157282 -1.603502 -0.801429 -0.355503 0.315474 0.433138 -0.085964 0.640499 -0.095779 -1.467134 -0.150713 0.178283 0.109796 0.841345 0.562503 -0.024427 -0.552086 0.054510 -1.080976 0.072152
767 0.563691 0.177808 0.443045 0.783508 -0.370767 0.120893 0.249937 0.389143 -0.969130 0.780974 -0.827728 0.200821 0.051433 0.302540 0.485548 -0.033340 -0.811731 0.389181 0.133186 -0.250870 -0.212278 -0.027310 -0.640460 0.469589 0.881409 0.028001 1.521150 0.053324 0.252773 0.440498 -0.325163 -1.054899 0.658885 0.264276 0.461131 0.077259 -0.273589 0.068527 -0.881133 -0.267755 -0.594425 0.214741 -0.273797 -0.910341 -1.052554 0.140708 -0.059225 -0.416316 0.400579 0.595336 -0.529578 -0.355625 -0.415808 -0.283998 0.250176 -0.842142 -0.344193 0.131957 -0.106114 -0.350331 -0.582032 -0.169650 0.106362 -0.209864
871 -0.035860 -0.419133 -0.171950 -0.912695 0.085288 0.343366 -0.051581 -0.265045 -0.242666 0.084826 -0.030305 0.448250 0.712727 -0.356115 -0.008973 0.266477 -0.127140 -0.210387 -0.724066 0.405514 0.078389 0.498992 -0.025686 -0.445543 0.128301 -0.873718 -0.309167 -0.219463 -0.458746 0.559144 -0.070923 0.090761 0.708293 0.096513 -0.299743 -0.121852 0.114441 -0.657232 0.034725 0.316625 -0.112190 0.522803 0.438947 -0.221053 -0.073670 -0.517846 0.342453 -0.114784 0.041410 0.095710 -0.287266 -0.630830 0.178076 -0.326717 -0.595136 -1.057975 0.417399 -0.235503 -0.594202 -0.102746 0.163575 -0.187087 -0.892784 -0.420330
213 0.523103 -0.256326 0.642483 -0.382302 -1.054535 0.434149 0.035134 -0.060882 -0.549047 -0.380025 -0.404685 0.662644 0.149800 -0.352883 -0.561130 0.201201 -0.264471 0.002663 -0.102136 -0.105436 0.356712 -0.311852 0.055914 0.316175 -0.214447 0.222743 -0.498108 -0.138296 0.303900 -0.571853 -0.345140 -0.138852 -0.055915 -0.478579 0.062264 0.504073 -0.961734 0.336154 0.512422 -0.204647 -0.197095 -1.028461 0.644642 0.282221 0.850067 0.057930 -0.566403 -0.457098 -0.966410 0.355608 0.099743 -0.450675 -0.225714 -0.472187 -0.225244 -0.248444 -0.035466 -0.069510 -0.496316 1.219870 -0.085770 0.438548 -0.119602 -0.082418
1151 -0.849553 -0.205112 -0.099285 0.687752 0.369431 0.126371 0.630564 -0.087915 0.143564 0.202984 -0.831467 0.690046 -0.487853 0.237418 -0.662965 0.791932 0.727066 0.367783 0.005512 1.318501 -0.226177 -0.422755 0.281910 -0.112771 0.603846 0.251318 -0.284420 -0.249185 0.227863 0.912805 -0.226514 0.187363 0.034921 0.613462 -0.021943 -0.076941 -0.969830 0.128984 0.670487 -1.099656 0.023383 -0.239788 0.086720 -0.015278 -0.158436 0.348584 -0.673981 0.343222 0.824142 0.204170 0.008840 1.021703 0.567147 -0.042531 -0.069460 -0.594253 0.216710 0.075054 0.332298 -0.176739 -0.525724 -1.079688 0.304429 -0.037859
239 -0.744936 0.542036 -0.450143 0.222895 -1.374095 0.377360 0.840545 0.606703 0.116952 0.258302 0.309484 -0.534439 0.326705 0.378948 0.446957 0.759769 0.152589 0.277939 0.808864 0.227300 -0.176801 1.207485 -0.601676 -0.020404 0.747830 0.121019 -0.111947 -0.976650 -0.635928 0.109092 0.029694 -0.140327 -0.029887 -0.352270 -0.105290 -0.271285 0.185781 1.241705 0.259015 0.103383 0.330447 -0.061148 -0.596194 -0.012095 0.205486 -1.330790 -0.556232 -0.457462 -0.087291 -0.345069 -1.173411 0.183442 -0.034202 0.481314 -0.041771 -0.703901 0.495903 -0.673962 -1.097308 -0.474373 -0.633735 -0.129880 -0.020508 -0.058819
928 0.408631 0.049718 0.181544 -0.395058 -0.413019 0.160931 0.502156 0.252587 -0.408127 -0.267835 0.226395 0.981153 0.075372 -0.103563 0.425752 0.115910 0.243835 -0.246665 0.383993 0.168530 -0.115742 0.021176 0.207290 -0.005485 -0.473058 0.220169 -0.916391 0.656561 0.364803 -1.194389 -0.190046 0.490243 -0.072358 -0.021533 -0.435424 0.197491 -0.125068 0.851212 1.194191 0.203894 -0.480387 -0.704128 -0.189530 0.401879 -0.065660 -0.247486 -0.752947 0.141514 -0.612979 0.328897 -0.046648 -0.800525 -0.572608 0.392947 -0.330677 0.447765 0.468044 -0.302713 -0.160705 0.600258 0.003012 -0.186043 -0.295902 -0.075425
1124 -0.361753 1.084770 -0.884376 -0.430784 -0.237783 -1.436488 0.283143 -0.083399 -0.127301 -0.096146 0.802381 1.589125 -0.126982 -0.463993 0.478572 -0.382081 -0.007080 -0.758535 -0.511716 -0.011710 -0.021080 -0.241223 0.307588 -0.346644 -0.339561 0.554497 0.984325 -0.643276 -0.371409 0.384195 -0.607490 0.548942 0.752629 0.604801 -0.140472 -0.196134 -0.217698 -0.225240 -0.018637 0.248589 0.202108 0.804302 0.018479 0.085424 0.540085 0.261497 0.040197 0.756674 0.364784 -0.834294 -0.010076 0.871455 0.064258 0.092427 -0.267888 0.043422 0.368076 -0.031686 0.270529 0.553878 -0.531469 0.055101 0.417150 -0.312918
180 0.087311 -0.134817 -0.431577 0.289275 -0.479411 0.127841 0.625349 -0.134409 0.471311 -0.826722 0.130747 1.008196 0.520819 0.125818 0.013558 0.166859 -0.140845 -0.676015 0.340769 0.375115 0.333469 0.035314 0.472691 -0.347286 0.164690 0.659531 -0.445471 0.250291 -0.753070 -0.597300 0.170776 -0.084624 -0.291158 0.654803 -0.192551 0.203362 0.007351 -0.326651 0.250456 -0.426792 -0.178880 -0.816472 -0.396608 -0.612630 -0.559513 -0.003467 -0.378930 -0.302223 -0.144141 -0.040268 0.152593 -1.157208 0.027207 -0.332679 -0.241723 -0.205565 0.183418 0.279308 -0.457992 0.535729 0.290053 -0.343683 0.042383 -0.726610
568 -0.501433 -0.453214 0.266453 -0.090854 0.381052 -0.319501 0.288905 -0.162601 -0.088514 -0.568453 -0.116862 0.341898 0.054110 -0.122950 0.282696 0.116268 0.060239 0.048147 0.801250 -0.145647 -0.062587 -0.883765 0.511095 0.366746 -0.520129 0.586069 -0.104740 -1.306486 -0.395804 -0.613273 -0.661526 0.217715 -0.255941 0.154579 -0.287710 -0.682455 0.344627 0.146673 -0.319504 0.408841 0.063682 -0.032355 0.448042 0.571361 0.163646 -0.038681 -0.661901 -0.129534 -0.002522 0.239344 0.060179 -0.211358 0.264184 0.161591 -0.158238 -0.429731 -0.676909 -0.245260 -0.140147 -0.828397 0.123523 0.369987 -0.053793 -0.943456
840 0.137243 -0.126219 -0.259494 -0.741434 0.155437 0.052794 -0.187792 -0.115562 -0.026834 -0.327918 -0.049809 0.786178 0.325604 -0.176074 -0.062074 0.493193 -0.024487 0.176301 -0.236243 0.289687 0.594306 0.268701 -0.098001 -0.829870 0.232785 -0.925666 -0.091370 0.225029 -0.362789 0.928722 -0.431732 -0.027211 0.202472 0.247900 -0.627419 0.210619 -0.099096 -0.964182 0.208028 0.467512 0.195976 0.448648 -0.073941 -0.384655 -0.260274 -0.339645 0.099175 -0.028101 -0.029526 0.216830 0.109168 -0.223529 0.322424 -0.014225 -0.338937 -0.761895 -0.038697 -0.157047 -0.261632 0.335342 0.091417 -0.294310 -0.818626 -0.201916
604 0.140470 -0.102628 -0.152087 -0.249872 0.370818 0.421661 -0.117671 -0.390818 0.419322 0.165333 -0.226457 0.271849 -0.342377 -0.306715 -0.174744 -0.033404 -0.021958 -0.167836 -0.161903 -0.451140 -0.171518 -0.114559 0.670944 -1.414460 1.035726 0.443213 -0.461951 0.677542 -0.178127 -0.595452 0.203624 0.389923 0.306155 0.082198 -0.276102 1.372799 0.753903 0.737960 0.070586 -0.199114 0.141018 -0.231620 -0.073387 -0.127665 -1.032683 0.530849 0.573936 -0.167212 0.331262 -1.049340 0.510583 0.019160 -0.038276 -0.266417 -0.889081 0.090979 -0.125533 0.103432 -0.910749 0.026316 0.693444 0.157709 0.910011 -0.525947
760 0.235064 -0.278582 -0.731156 -1.042375 0.166961 0.348498 -0.245126 -0.279654 -0.316386 -0.122257 0.116158 0.750540 0.211012 -0.557229 0.041893 0.117912 -0.012383 -0.082972 -0.042066 0.058629 0.131359 0.443580 -0.328497 -0.305580 0.042949 -0.696798 -0.339113 -0.158909 -0.344865 0.268291 -0.480327 0.236664 0.528120 -0.090258 -0.464030 0.353972 -0.133681 -1.125225 0.170152 0.505580 -0.098565 0.595822 0.162846 -0.636462 -0.297996 -0.181724 0.179462 0.240139 0.076431 0.606311 -0.054805 -0.353826 0.095274 -0.255149 -0.323451 -1.134683 0.151216 -0.300721 -0.373136 -0.175333 0.250690 -0.392968 -1.016577 -0.173158
761 -0.020233 0.346645 1.000248 -0.248077 -0.380358 -1.434287 0.514888 0.035277 0.805963 -0.899336 -0.201648 1.125408 -0.547002 -0.040304 -0.206527 0.896993 1.220869 -0.033722 0.272933 0.138711 0.445518 -0.093630 0.276219 -0.630843 -0.485032 -0.013814 0.000182 0.022255 0.892428 0.573940 -0.018984 0.599330 0.084752 -0.570719 -0.868268 0.463607 -0.854219 0.063764 0.301080 -0.172501 0.526340 0.419037 -0.351480 -0.087244 -0.836638 0.296827 -0.231665 0.147280 -0.123371 -0.250726 0.132258 -0.338806 0.212327 0.098100 0.417613 -0.999488 0.454420 -0.253731 0.061340 0.693760 0.156890 -0.753807 0.251041 -0.009028
838 -0.387429 0.532534 -0.305484 -0.443202 -0.644392 -0.131593 0.183750 0.055445 0.161559 -0.353401 0.061431 -0.149899 0.525641 0.896463 0.025816 -1.041983 0.155328 -0.031621 0.293770 -0.732373 0.643622 0.404903 0.353677 -0.040471 0.357061 0.212157 0.394902 0.123868 0.533267 -0.273211 0.814772 0.579938 0.062672 0.793269 -0.039213 -0.560884 -0.128888 -0.203427 -1.085664 0.881904 -0.217562 0.259704 -0.804085 0.693780 -0.426199 -0.246354 0.140317 -0.368254 0.851088 0.190400 -0.983804 -0.936150 0.025719 -0.105847 0.407471 -0.242713 0.002695 -0.682195 -0.317597 0.240990 -0.927029 0.742409 0.020633 0.611319
1089 -0.097272 0.279880 0.568283 -0.254808 0.323440 0.220644 0.320177 -0.247067 0.491849 -0.363173 0.247513 -0.054763 0.039531 -0.560892 0.068164 -0.865362 -0.070515 0.225824 -0.651467 -0.946534 0.606736 -1.046830 0.372952 -0.384700 0.370447 -0.404717 0.222151 -0.268429 0.787879 -0.497072 -0.261648 0.845650 -0.161612 -0.239663 0.371364 0.852861 -0.074056 -0.143379 0.326665 -0.046272 -0.149732 -0.594848 0.369623 -0.225758 -0.188570 0.042722 0.642898 0.727963 0.337868 -0.105819 -0.405978 -0.788120 1.155454 -0.101239 -0.085153 0.381726 -0.336352 0.782707 -0.318317 0.628929 -0.035792 0.850428 0.085784 -0.626155
314 0.731082 0.616319 -0.185627 -0.050934 0.307242 -0.739043 0.077669 0.174846 0.124792 0.125986 -0.054077 0.874386 -0.038638 -0.025273 0.679762 0.323690 0.248621 0.769082 -0.132253 0.358136 0.399362 0.031287 -0.110436 -0.459801 -0.842357 -0.154235 -0.421437 0.705315 0.715993 0.185122 -0.048805 -0.143756 0.615542 -0.730585 -1.055839 0.473516 -0.390622 0.549713 0.530648 0.009502 0.390834 -0.233913 -0.245356 0.329336 -0.784614 -0.100283 -0.147602 -0.177151 0.002596 -0.441855 0.339334 -0.792637 0.558406 0.182638 -0.565365 -0.944295 0.962813 0.000883 -0.162901 0.209064 1.161473 0.265418 0.602081 0.096465
620 0.667633 0.457017 -0.732695 0.496565 -0.069348 -0.002951 0.340220 0.216847 -0.830393 1.024511 -0.257346 0.110624 0.133050 0.001560 0.602019 -0.363746 -0.544206 -0.365418 0.568540 -0.150230 -0.042683 0.096937 -0.403527 0.860916 1.218776 -0.145318 0.791805 0.183552 0.067272 0.977049 0.215958 -0.654875 0.301410 -0.427458 0.084224 0.342605 -0.180184 0.034706 -0.297310 -0.199871 -0.495920 0.914692 0.529112 -1.344622 -1.366753 0.736067 -0.105594 -0.140829 0.381043 0.477856 -0.724177 0.488232 -0.716745 -0.362685 0.094560 -0.362970 -0.328271 0.379074 -0.086544 -0.174965 -0.496907 -0.112181 -0.064445 -0.563987
160 0.199508 0.052382 -0.354140 -0.509219 -0.497842 -1.033399 0.096434 -0.333316 0.292732 -0.673881 0.261900 -0.281605 -0.007318 0.002795 0.174779 0.444013 0.223762 0.028133 -0.176349 -0.126542 0.454115 -0.123541 -0.159861 -0.944358 -0.855481 -0.041884 -0.074466 -0.400723 0.419989 0.185076 0.306963 -0.207422 0.677343 -0.100356 -0.403915 -0.658915 -0.091828 0.246565 0.501087 -0.008886 0.511288 0.826514 0.386875 -0.510939 -1.095011 0.314967 0.257231 -0.571453 -0.569845 0.327834 0.287418 -0.296627 0.634414 0.028121 -0.138592 -0.586099 -0.111174 -0.488724 -0.155968 -0.351972 1.180965 0.076846 0.401783 0.074711
200 1.474341 -0.684000 0.452637 0.733940 -0.634668 -0.246902 -0.143266 0.072766 -0.697360 -0.428683 0.248394 -0.369539 0.493056 -0.429712 0.517049 -0.466732 0.581470 -1.152840 0.289587 -0.102515 0.323145 -0.052364 -1.105824 -0.158139 0.325426 -0.486280 0.848579 -0.583265 0.921209 -0.768343 0.214061 0.046150 0.476990 0.196277 -0.090820 0.406500 -0.244789 -0.132002 -0.003335 -0.497991 0.920391 -0.293362 0.942872 -0.361732 -0.208866 -0.956349 -0.374233 -0.847826 0.705755 0.093927 0.008699 -0.988521 0.147998 -0.104133 0.690908 -0.685135 -0.168847 0.051303 0.020308 0.675436 0.990951 -0.463964 -0.576738 0.134443
690 -0.499185 0.195684 0.139861 -0.329879 0.227012 -0.377337 0.417094 0.334835 0.244622 -0.543092 0.302383 -0.319617 0.157595 1.297994 0.590826 -0.092817 0.067616 0.352759 0.041100 -0.509767 -0.053018 -0.488470 0.781772 -0.310363 0.537252 -0.175435 0.807556 0.187846 0.886317 -0.465713 0.623774 -0.759366 -0.170286 0.178154 0.652481 0.310018 -0.633698 -0.278182 -0.271646 0.960395 -0.238976 -1.088356 -1.202487 0.663160 -0.239987 -0.443335 -0.287271 -0.375158 -0.306135 0.298977 -0.755643 -0.046967 0.256977 -0.339761 0.377604 -0.517067 0.358900 -0.111111 0.425301 0.753401 -0.529424 0.297971 0.291799 -0.323584
403 -0.674282 0.173108 -0.175706 -0.451452 -0.264512 -0.049473 -0.009325 0.217758 0.291332 -0.253339 0.670474 -0.002664 0.283355 0.723249 -0.273418 -0.420708 -0.377601 0.026869 0.007452 -0.498289 0.156492 -0.371219 0.456155 0.011390 0.394962 0.224614 0.368299 0.533031 0.795186 -0.941333 0.737785 -0.088596 -0.275294 -0.026499 0.196398 -0.115215 -0.300919 -0.381654 -0.384057 0.670245 -0.276080 -0.400432 -0.083967 0.463781 0.296994 -0.294292 -0.291262 -0.034820 0.619827 -0.314438 -0.168063 -0.757478 0.218081 -0.389909 0.579437 -0.427389 -0.002859 -0.420409 -0.377132 0.603837 -0.804973 0.248314 0.011630 -0.145687
64 -0.065126 0.340517 0.093661 -0.299916 0.212143 0.954454 -0.431755 -0.198558 -0.504180 -0.789488 -0.170075 -0.262367 0.961152 0.370356 0.885779 0.036848 -0.097392 -0.173135 -1.002265 -0.082399 0.135131 0.420740 0.376809 -0.722013 -1.289121 -0.514592 -0.731289 -0.012501 -0.526564 -0.195131 0.311920 0.663371 0.998129 1.135181 -0.123436 0.265084 -0.045960 -1.159138 -0.061534 1.269046 0.111439 0.020782 -0.125089 -0.094244 0.417395 -0.558494 -0.110521 -0.259610 0.950420 0.048973 -0.609444 -0.203794 0.126931 -0.508100 -0.657104 -0.253010 0.800356 -0.688847 0.092099 -0.551081 0.048315 -0.301160 -0.449541 0.000058
851 0.862492 -0.275476 0.698039 -0.268357 -0.038706 0.335890 -0.135579 1.720483 -0.053614 -0.359582 -0.167028 -1.074714 0.032796 0.780202 0.077888 -0.294471 0.381986 0.183430 0.090904 -1.114567 -0.238888 0.019464 0.105301 0.721637 0.059736 -1.013068 -1.315197 -0.031307 -1.197588 -0.123852 0.517497 -0.332156 0.534588 -0.143079 0.041668 -0.583312 1.343129 -0.311955 0.675399 0.092960 0.433397 -0.061919 -0.310975 -0.540007 -0.312168 0.042017 0.942610 0.662085 0.024754 0.871486 -0.671492 0.082265 0.114753 -0.149139 -0.218330 0.153334 -0.439467 0.020506 0.813226 -0.183884 0.118437 -0.224280 -0.652027 0.602717
318 0.186072 -0.185181 -0.579814 -0.438332 -0.581447 -0.855141 -0.515421 -0.338295 0.126522 -0.423730 0.300724 -0.745270 0.464583 0.241566 0.098167 0.242441 0.139618 0.102114 0.412237 -0.439703 0.010438 -0.482156 -0.295693 -1.029654 -0.882456 -0.357407 0.382512 -0.512480 0.720497 -0.105733 0.605067 -0.311281 0.201395 -0.216885 -0.510557 -0.837846 0.080238 0.038296 0.152985 0.204857 0.503918 1.132282 0.617766 -0.852554 -0.817647 0.295526 0.729931 -0.799029 -0.346645 0.423092 0.034584 -0.731815 0.410959 0.463006 -0.002644 -1.151882 -0.334010 -0.431878 -0.017955 -0.631713 1.145321 0.224572 0.340791 0.099830
1137 0.036377 -0.309300 -1.234289 0.390518 -0.674275 0.075580 0.811970 0.668883 0.644607 0.161623 0.625792 -0.266655 0.385182 0.455209 0.467633 -0.030103 -0.415035 0.143925 0.013815 -0.024514 0.214243 0.564421 -0.400829 -0.279048 1.053052 0.144348 0.545354 -0.935214 -1.090018 0.836059 -0.686195 0.175323 0.452770 -0.927964 -0.300621 -1.073451 0.253967 0.406708 0.106177 -0.569745 0.611354 -0.412344 -0.478767 -0.057118 0.202615 -0.406841 -0.119460 -0.348997 -0.470177 -0.446796 -0.263700 -0.194436 -0.648517 0.448246 0.128157 -0.194354 0.067450 -0.223004 -1.034933 -1.162102 -0.556589 -0.311325 -0.396265 0.706544
920 1.255717 -0.935309 0.794584 0.430203 -0.505564 -0.094507 -0.205803 0.750502 -0.750441 -0.365359 0.297335 -0.238596 0.236827 -0.447425 0.378065 -0.689666 0.668934 -1.252499 0.368838 -0.116302 0.625577 -0.060785 -1.022000 -0.008351 0.673378 -0.452336 0.786995 -0.525812 0.992347 -0.914964 0.572958 -0.065100 0.531985 0.318341 -0.174085 0.071485 -0.291545 -0.032988 -0.140627 -0.311294 0.656488 -0.150909 0.868788 -0.407533 -0.412973 -1.473139 -0.725076 -0.615868 0.461594 0.123716 0.000774 -0.730121 0.052219 -0.453990 0.716667 -0.420948 -0.389753 0.518019 0.199812 0.431238 0.706842 -0.502407 -0.670066 -0.167419
1233 -0.857941 -0.130029 -1.221667 0.346090 0.451893 -0.398780 0.362431 0.754022 0.185500 0.781992 -0.364907 -0.267408 0.378049 -0.721219 0.468259 -0.685117 0.182137 0.242165 -0.071862 -0.235461 0.987237 0.019066 -0.099660 -0.687099 0.892905 -0.098421 0.598300 -0.162222 -0.056238 -0.203299 -0.005646 0.635853 -0.422080 0.097971 -0.273168 0.072704 -0.022646 -0.728396 -0.108194 -0.188653 0.327639 -0.636525 0.265417 0.464163 -0.378870 -0.525399 -0.326983 0.266485 -0.068869 0.043682 0.086245 0.323003 -0.572451 0.646909 0.535183 -0.416901 0.162814 0.022149 0.581732 -0.096852 1.020152 0.488696 0.365777 -0.231080
892 0.150254 0.090616 -0.560190 -0.414610 -0.520707 -0.679640 -0.230957 -0.392713 0.180474 -0.594263 0.243052 -0.842371 0.381577 0.111619 0.132455 0.097011 0.258046 -0.173441 0.122657 -0.492308 -0.028698 -0.195333 -0.219474 -0.792129 -0.670242 -0.295604 0.093363 -0.509730 0.548223 0.175551 0.633010 -0.327141 0.198385 -0.427041 -0.426689 -0.869892 0.032579 0.077369 0.526700 0.077864 0.390413 1.053602 0.535910 -0.797216 -0.846392 0.220758 0.581495 -0.943277 -0.801337 0.728261 -0.057397 -0.564464 0.919201 0.091164 -0.082436 -0.908963 -0.082778 -0.499422 -0.389305 -0.251923 1.288375 0.469862 0.255412 0.238660
1015 0.310137 -0.218263 0.481369 -0.041043 0.528885 0.208812 0.082972 -0.420449 -0.130190 -0.191886 -0.546187 0.216601 -0.120711 -0.537884 -0.555341 0.470385 0.288408 -0.651989 -0.320889 -1.080528 -0.075030 -0.044526 0.316833 0.391911 0.531315 -0.121324 -0.825659 -0.039640 -1.090879 0.159913 0.799862 0.192464 1.140581 0.247853 -0.181012 -0.287339 0.256323 -1.145911 -0.096744 0.436872 0.019621 -0.145739 -0.562466 -0.308108 -0.756626 -0.546033 0.110319 -0.658867 0.186228 0.340430 0.025402 -0.956484 -0.457993 -0.056694 -0.983240 0.201417 -0.034156 0.097159 -0.382635 -0.419834 -0.155088 -1.004034 -0.082011 1.008785
31 0.074765 -0.014371 -0.186585 -0.073235 0.453974 0.317458 -0.026173 -0.371244 0.298858 0.140024 -0.171708 0.291412 -0.284365 -0.259030 -0.153252 0.206643 0.025741 -0.337023 -0.323047 -0.483633 -0.278931 -0.148821 0.765902 -1.302728 0.970900 0.568167 -0.258408 0.550080 -0.138762 -0.563992 0.156052 0.572808 0.237106 0.164187 -0.292696 1.229196 0.643506 0.654747 0.042652 -0.204546 0.207139 -0.284524 -0.156096 -0.206526 -0.871689 0.506983 0.524991 -0.279669 0.353634 -1.057897 0.500580 -0.019221 -0.005524 -0.222749 -0.978245 0.128924 -0.175860 0.132058 -0.918027 0.069170 0.645254 -0.011810 0.950287 -0.545072
785 0.211765 0.124394 -0.557931 -0.378589 -0.447136 -0.690882 -0.237559 -0.515029 0.123324 -0.532503 0.107713 -0.817380 0.425620 0.130388 0.212933 0.028109 0.153393 -0.189256 0.141720 -0.452368 -0.141655 -0.394661 -0.211139 -0.706919 -0.634911 -0.416951 0.133772 -0.565290 0.512894 0.189023 0.559215 -0.319848 0.252960 -0.281399 -0.341790 -0.880817 0.034431 0.034947 0.564852 0.063509 0.391460 1.094065 0.529894 -0.765774 -0.792642 0.384328 0.687373 -0.832827 -0.747478 0.699217 -0.136903 -0.472700 0.927925 0.169695 -0.053743 -0.863094 -0.028470 -0.539424 -0.300838 -0.282279 1.200463 0.400596 0.189019 0.202472
728 -0.292020 -0.104992 0.094685 -0.835705 -0.664849 0.591283 0.220055 -0.326687 -0.295060 -0.167706 -0.615623 1.149649 -0.061588 -0.029148 -0.077079 -0.630292 -0.341523 0.359580 0.057763 0.346456 0.098284 -0.260064 0.722300 -0.372772 -0.016031 0.354177 -0.489361 -0.119192 -1.027523 -0.630983 0.337382 -0.244173 0.632052 -0.172039 -0.235542 0.554437 -0.567657 -0.354886 -0.296828 -0.200342 -0.094716 -0.467793 -0.228710 -0.094181 -0.080364 -0.053030 0.142025 0.495273 -0.142453 -0.220375 -0.192072 -1.017238 -0.714200 0.013584 -0.158654 0.200826 0.301531 -0.464047 0.734785 0.465365 0.111707 -0.257479 0.463369 0.124278
634 0.142970 -0.127726 0.864861 0.846585 -0.011013 0.013851 0.556527 -0.642968 -0.070043 0.154625 -0.601886 0.054881 -0.419592 -0.844066 -0.052814 0.045430 -0.179703 1.148494 0.360224 -0.334934 -0.727358 0.566639 0.580270 -0.539616 0.180776 -0.265417 0.317966 -0.005506 0.052553 -0.517339 0.056689 -0.245978 0.518826 0.400684 0.247251 0.012792 0.299146 -0.340099 -0.284528 0.381943 0.014235 -0.212010 -0.070686 -0.002033 0.544879 0.173500 -0.460610 0.228554 0.249876 0.349522 0.129539 -0.181822 0.463144 0.843263 -0.163953 -0.927951 0.251574 0.461893 -0.399600 0.117576 0.318099 0.149091 0.733784 0.784727
192 0.212777 -0.135066 -0.190838 -0.023028 0.263565 0.523723 -0.056455 -0.287844 0.305804 0.297120 -0.189570 0.389178 -0.140922 -0.148898 -0.223743 -0.117002 -0.062727 -0.200135 0.018789 -0.623681 -0.143254 -0.281092 0.500731 -1.469230 1.089876 0.362200 -0.441760 0.697669 -0.032419 -0.531180 0.028885 0.478183 0.308180 0.001799 -0.298626 1.295472 0.630838 0.730694 0.071768 -0.389094 0.361514 -0.192679 0.019724 -0.274758 -1.012097 0.466120 0.587628 -0.047043 0.504285 -0.941291 0.257701 -0.147909 -0.049584 -0.151957 -1.082778 0.096474 -0.262419 -0.010181 -1.017936 -0.135484 0.665397 0.173899 0.822781 -0.518333
231 -0.624460 0.476263 -0.259932 -0.585383 0.662687 -0.003622 -0.095590 0.220357 -0.067250 -0.614644 0.166817 0.174893 -0.353495 0.680566 -0.031409 -1.064870 -0.212956 0.514745 0.190450 -0.432735 0.649217 0.015019 1.026341 -0.367643 -0.440901 0.386893 0.277839 0.927312 0.548522 -0.880935 0.669431 -0.453050 -0.156517 -0.148359 0.089717 -0.105031 0.326482 -0.303587 -0.200440 0.321341 -0.372727 -0.112704 -0.789609 0.265001 0.188512 0.294614 0.062846 0.511335 0.357693 -0.266477 0.187864 -0.480642 0.593116 -0.701297 0.669773 0.266154 0.069258 0.102854 0.040321 0.745562 -0.267681 0.716389 -0.132101 0.212183
997 -0.001151 0.305171 0.437928 0.427446 -0.612462 0.286027 -0.085106 -0.214789 -0.855425 0.319958 0.488938 0.606065 -0.441012 -0.248288 0.133184 0.006552 -0.534545 -0.533080 0.004196 0.451087 0.253670 0.167121 0.150548 0.006117 -0.407130 0.388967 -0.542501 0.360291 0.163975 -0.182152 -0.087383 0.136593 0.008294 -0.431860 -0.431079 0.148589 0.201394 -0.977787 0.532874 -0.003252 0.220308 -0.488260 -0.204586 0.444375 -0.692026 -0.259271 -1.015388 -0.487832 0.053630 0.441888 0.153092 -0.623971 -0.301306 0.190668 -0.244979 -0.096273 -0.292454 -0.573949 0.435033 0.084125 0.653660 -0.106039 0.139865 -0.096921
817 -0.945880 -0.604097 0.205082 -0.020198 0.338067 -0.477757 0.335185 -0.197887 0.250170 -0.403579 -0.093443 0.376078 -0.150010 -0.108673 -0.003728 0.428922 -0.055948 0.176227 0.753639 -0.044938 -0.366029 -0.598891 0.235313 0.437282 -0.415872 0.443323 -0.249803 -1.505850 -0.038678 -0.268571 -0.236607 0.148416 -0.043734 0.196512 -0.064937 -0.680351 0.544158 0.507167 -0.634582 0.596952 -0.352883 0.475981 0.176248 0.816168 0.074509 0.111778 -0.762543 0.049869 0.345198 0.152330 -0.208392 -0.091668 0.594182 0.154821 -0.411790 -0.363612 -0.754311 -0.224339 -0.398090 -0.970786 0.245484 0.781195 0.477382 -0.821778
717 -0.557907 -0.177837 0.075269 0.176510 0.171140 -0.020310 0.252421 -1.297182 0.465164 -0.719281 0.216683 -0.765529 0.468946 -0.252456 -1.207406 1.054263 1.159185 -0.886766 0.318882 -0.483858 -0.849883 -0.312746 0.020020 0.159748 0.881899 -0.464194 -0.227689 0.226225 0.407199 -0.563645 0.715211 0.485691 0.218006 0.393647 -0.874212 -0.034707 -0.785192 0.441659 0.609212 1.186422 0.470386 0.376536 0.130730 0.587302 0.789440 -0.528543 -0.013451 -0.318069 0.110273 0.302499 -0.087229 0.369000 0.597864 0.576669 -0.408404 0.595553 -1.105762 -0.356393 0.181349 0.079511 0.355736 -0.674793 0.011269 0.747592
1205 0.302804 -0.028266 -0.372444 -0.061752 -0.028905 0.470319 -0.164604 0.517447 0.472506 -1.263367 -0.049109 0.929067 1.168880 0.959616 0.032493 0.626601 -1.217806 1.173161 0.423158 0.263367 0.144398 0.876737 0.099235 -1.128970 -0.808859 -0.013364 -0.356544 1.163411 0.068116 -0.222932 0.254487 -0.227956 -0.430493 0.128165 -0.648837 -0.763540 0.501201 0.060961 -0.008847 0.526146 0.812824 -0.170641 -0.394971 0.228626 -0.217724 -0.628335 -0.953701 -0.152449 0.093786 0.638445 0.667808 -0.524928 -0.261972 -0.556326 -0.183965 -0.294843 -0.473903 0.287043 -0.082248 -0.838252 -0.542554 0.255597 -0.140621 -0.184811
97 0.144153 -0.890525 -0.019342 -0.527977 1.706416 -0.131711 0.485142 0.584494 -0.514583 0.253618 -0.414201 -0.771729 -0.465721 0.277368 -0.331521 -0.320911 0.662344 0.342594 -0.617056 -0.643227 0.097721 0.752693 -0.216617 1.179650 0.985649 0.133047 -0.524079 -0.762117 1.114136 0.538188 0.640033 -0.129853 -0.054225 -0.272557 0.372430 0.001277 0.269743 1.213471 -0.147279 -0.485292 0.857468 -0.181311 0.313262 0.243119 -0.139687 -0.659278 -0.145132 -0.800987 0.085354 0.040773 0.879596 -0.329466 0.586991 0.071475 0.303823 -0.537331 -1.061031 0.966277 -0.509984 -0.271533 -0.159970 0.234928 -1.148008 -0.056267
1146 0.493171 -0.030449 0.942926 0.440500 -0.202683 -0.081923 0.444600 -0.143846 0.135481 0.071388 -0.354649 0.635921 0.488785 -0.475740 0.354449 -0.023545 0.019723 0.491131 0.526236 -0.296408 -0.474994 0.356168 0.441981 -0.411999 -0.089316 -0.281001 0.242265 0.177984 0.395527 -0.498742 0.218051 -0.172949 0.072992 0.393826 0.262812 -0.165626 -0.043642 -0.482919 0.035201 0.323023 0.197395 -0.297695 0.285219 -0.144234 0.575219 -0.169454 -1.090160 -0.177943 -0.279379 0.361780 0.049421 -0.152756 -0.167354 0.437244 -0.578315 -0.374104 0.051457 0.066921 -0.140495 0.164992 0.250210 0.579023 -0.006011 0.603952
1051 -0.992855 -0.601104 0.117549 0.105612 0.393694 -0.233568 0.184425 -0.068153 0.272765 -0.599138 -0.161176 0.277938 -0.059774 -0.227238 -0.067181 0.373232 0.016342 0.280712 0.674461 -0.216704 -0.193406 -0.661447 0.316451 0.611214 -0.461514 0.527417 -0.263088 -1.513282 -0.246841 -0.331330 -0.261648 -0.042512 -0.105960 0.274025 -0.089165 -0.470171 0.373677 0.344261 -0.507583 0.398746 -0.356142 0.585433 0.362377 0.654367 0.013988 0.308936 -0.710798 -0.046464 0.295140 0.364960 -0.113002 -0.135710 0.641218 0.440989 -0.316075 -0.291055 -0.903875 -0.148906 -0.294905 -1.055722 0.368489 0.495576 0.499347 -1.003182
716 -0.194464 -0.150044 -0.342133 -0.498151 0.253518 -0.811405 0.290137 0.535812 0.296082 -0.239147 0.663746 -0.874624 0.386203 -0.696158 0.336544 -0.019875 -0.223463 0.207147 -0.491717 -0.463056 0.486442 -0.309676 0.359762 0.193302 0.030549 -0.024342 0.526670 0.487375 -0.296405 -0.933466 -0.446058 0.034139 -0.206479 -0.021045 0.385064 -0.581932 -0.402503 0.008726 0.376142 0.252666 -0.312967 0.036387 0.782014 0.488535 -0.662020 -0.245307 -1.004308 0.414949 -0.320097 -0.238757 0.275200 -0.121233 -0.495363 -0.050443 1.227294 0.052385 0.512204 -0.647322 0.483526 -0.487639 0.724487 -0.639173 -0.280280 0.022488
491 -1.107967 -0.516885 0.251693 0.078853 0.538440 -0.391870 0.280686 -0.238283 0.236463 -0.447416 -0.140765 0.388292 -0.162196 -0.116530 -0.027854 0.611113 0.135849 0.213994 0.706785 -0.172279 -0.364333 -0.545435 0.181048 0.511813 -0.482572 0.397746 -0.274147 -1.540157 -0.122672 -0.121319 -0.303287 0.026843 0.083093 0.361006 0.019647 -0.745823 0.484630 0.540104 -0.525743 0.649873 -0.198916 0.564877 0.236945 0.832122 0.001275 0.128365 -0.742273 -0.045630 0.330685 0.272260 -0.211902 -0.017255 0.635583 0.392112 -0.288316 -0.224743 -0.971551 -0.160640 -0.256383 -1.044348 0.215543 0.597924 0.444709 -0.867320
384 -0.353185 0.329078 0.349494 -0.346753 0.098988 0.363945 0.346975 -0.018016 0.372208 -0.482127 0.298486 0.236956 -0.234508 -0.262192 -0.371960 -0.837686 0.109160 0.312319 -0.510080 -0.892371 0.715188 -0.990720 0.606894 -0.340429 0.510115 -0.255772 0.672996 0.034872 0.697534 -0.250461 0.287358 0.408918 -0.236778 -0.347347 0.180434 0.435391 -0.157351 -0.700462 0.091806 0.074905 -0.238285 -0.397519 0.162222 0.105571 -0.234467 -0.156423 0.596478 0.530336 0.410407 0.051054 -0.246531 -0.986890 0.893265 -0.104031 0.045120 0.280030 -0.568933 0.462171 -0.378005 1.059781 -0.469310 0.455768 0.090288 -0.253039
1055 -1.078763 -0.571019 0.070649 0.130268 0.381305 -0.260855 0.160361 -0.007498 0.340226 -0.486537 -0.154560 0.353160 -0.013824 -0.153481 -0.059847 0.375530 -0.056522 0.201352 0.657649 -0.197285 -0.224025 -0.521461 0.261129 0.554635 -0.425040 0.460779 -0.256159 -1.569208 -0.197477 -0.250532 -0.201986 -0.071340 -0.013040 0.316726 -0.059709 -0.533005 0.399810 0.296560 -0.586645 0.391911 -0.290475 0.552752 0.325754 0.623698 0.121938 0.328726 -0.779873 -0.020435 0.319243 0.307939 -0.207534 -0.057729 0.647652 0.412414 -0.338885 -0.242565 -0.918159 -0.106667 -0.301890 -0.983097 0.384033 0.592299 0.556134 -0.991913
143 0.300205 -0.092594 -0.697936 -0.542564 -0.428917 -0.718463 -0.149312 -0.367713 0.125781 -0.422386 0.188014 -0.784506 0.207664 0.232381 0.163136 0.153854 0.192562 0.023434 0.111920 -0.391543 0.133051 -0.166042 -0.462274 -0.787415 -0.467890 -0.270622 0.170321 -0.663037 0.595434 -0.023228 0.558784 -0.373687 0.351098 -0.269273 -0.420457 -0.899711 0.109273 0.298202 0.316558 0.128027 0.425741 0.986534 0.594530 -0.827067 -0.960087 0.318680 0.766642 -0.780161 -0.682952 0.694864 0.026142 -0.622650 0.727481 0.055468 -0.063949 -1.023625 -0.391629 -0.639287 -0.214044 -0.374023 1.236391 0.535949 0.092660 0.200698
687 0.309215 -0.072825 -0.222676 -0.158475 0.244999 0.467585 -0.043153 -0.272986 0.394309 0.260350 -0.180827 0.348788 -0.208779 -0.184656 -0.303260 -0.222476 0.036929 -0.265963 0.080973 -0.529472 -0.100547 -0.336219 0.487735 -1.392040 1.104950 0.462077 -0.458877 0.738398 -0.014155 -0.612408 0.133074 0.426624 0.254495 -0.016390 -0.347896 1.364416 0.723443 0.760622 0.094828 -0.448552 0.368850 -0.239996 0.083123 -0.227578 -1.033381 0.435849 0.510518 -0.116539 0.545657 -1.139271 0.315506 -0.176936 -0.044350 -0.213939 -0.998254 0.100599 -0.195247 0.035185 -1.063493 -0.095987 0.691370 0.255734 0.801831 -0.613055
936 0.383325 0.163872 -0.355822 0.545173 -0.331224 0.480643 0.069950 -0.279807 0.081062 -0.171011 -0.383396 -0.378499 -0.000607 0.496011 0.326980 -0.254008 -0.164676 -0.263501 -0.318240 0.039180 -0.405512 -1.078956 1.038787 -0.297629 -0.094578 -0.244616 0.446991 0.109315 -0.777242 0.603461 0.664809 0.014095 0.080708 0.667680 -0.620298 0.151850 0.433199 0.233431 0.142395 -0.479261 -0.012480 0.848199 0.089970 0.919546 0.013743 -0.018083 0.456623 -0.882665 0.488463 -0.304704 -0.097341 0.075797 0.693412 0.302021 0.170353 0.055320 -0.036224 -0.753945 0.409319 -0.506955 -0.240676 -0.938646 0.516727 -0.739669
1266 0.357002 -0.062484 -0.464631 -0.430229 -0.431527 -0.892333 -0.172813 -0.409814 0.101170 -0.477931 0.152327 -0.845975 0.269612 0.074055 0.189616 0.231880 0.186398 -0.065126 0.057627 -0.522463 0.042683 -0.270460 -0.339056 -0.787764 -0.630480 -0.287829 0.007246 -0.727201 0.611822 0.011567 0.470329 -0.342128 0.476997 -0.181466 -0.384606 -1.017149 0.121261 0.310028 0.428752 0.130991 0.399475 1.010454 0.620434 -0.626384 -0.978006 0.305269 0.562135 -0.851484 -0.694140 0.497094 0.002299 -0.439284 0.671473 0.160131 -0.167574 -1.030021 -0.133093 -0.712389 -0.292137 -0.505769 1.413019 0.435723 0.225403 0.177277
315 -0.029950 0.298681 0.631192 -0.216684 0.231964 0.476113 0.373688 -0.404087 0.137855 -0.511163 0.624707 -0.166797 -0.269086 -0.865246 0.010905 -1.228628 0.274292 0.089370 -0.303731 -0.863287 0.875841 -0.667340 0.499929 -0.510078 0.166685 -0.080862 0.616685 -0.312821 0.814316 -0.533043 -0.232818 0.609176 -0.116963 -0.449529 0.455627 0.820675 0.189032 -0.247612 0.194745 0.084617 -0.100599 -0.801026 0.133612 -0.156556 -0.180206 -0.164470 0.440503 0.467214 -0.235886 -0.011581 -0.295494 -0.882310 1.252432 -0.269898 0.048061 0.632296 -0.325012 0.823833 -0.885609 0.923120 0.044101 0.977932 0.227191 -0.503422
348 0.210590 -0.123364 -0.157835 -0.103895 0.239817 0.506365 0.031237 -0.236520 0.347258 0.313730 -0.226912 0.294590 -0.230812 -0.106370 -0.319812 -0.131287 -0.007568 -0.240758 0.028080 -0.542841 -0.033481 -0.265643 0.519661 -1.365016 1.089045 0.361507 -0.587999 0.808614 -0.057397 -0.613061 0.127563 0.455006 0.234181 0.016920 -0.358730 1.288163 0.790889 0.736115 0.126260 -0.436251 0.328412 -0.221912 0.034306 -0.169364 -1.092264 0.401659 0.580417 -0.104031 0.574126 -1.002291 0.248843 -0.212747 -0.054308 -0.191734 -1.008992 0.038441 -0.157958 -0.074198 -1.005175 -0.132620 0.655910 0.187859 0.775654 -0.533577
648 -0.980408 -0.608644 0.132142 0.014135 0.287870 -0.488051 0.307144 -0.174754 0.157202 -0.474879 -0.047930 0.322643 -0.107469 -0.120007 0.008616 0.449530 -0.177442 0.080601 0.747005 -0.061421 -0.345255 -0.680115 0.211806 0.395617 -0.423465 0.449495 -0.158967 -1.516695 -0.079625 -0.224709 -0.277995 0.112193 -0.105523 0.008412 -0.160962 -0.663573 0.543920 0.509158 -0.652596 0.499309 -0.266323 0.533568 0.294758 0.696449 0.089850 0.079332 -0.674706 0.005704 0.354115 0.179759 -0.153656 -0.161106 0.573868 0.212640 -0.329391 -0.343661 -0.861809 -0.146530 -0.270241 -0.961188 0.229801 0.769084 0.491520 -0.875299
1219 0.320205 -0.127774 -0.222773 -0.256058 0.287851 0.407329 -0.011646 -0.312067 0.312577 0.151056 -0.120700 0.233800 -0.279492 -0.215473 -0.234917 -0.089059 -0.097640 -0.273426 -0.138596 -0.441756 -0.119930 -0.069680 0.517054 -1.328633 1.055120 0.392125 -0.451064 0.737090 -0.079849 -0.579662 0.117199 0.368277 0.314433 0.128997 -0.312280 1.417079 0.903465 0.798074 0.084525 -0.280140 0.228156 -0.127344 -0.027741 -0.245978 -1.034911 0.518826 0.620858 -0.144362 0.486157 -1.008450 0.462331 0.012217 0.021531 -0.387348 -0.864751 0.054912 -0.102925 0.013548 -1.023666 -0.022843 0.602285 0.130145 0.756052 -0.516016
1210 0.582140 -1.004647 0.466513 0.567069 0.354799 -0.498558 -0.146827 0.110537 -0.555591 0.303635 -0.314580 1.175891 -0.528231 0.087573 0.327769 -0.219177 0.560714 -0.080526 1.763686 0.164459 0.051172 0.238502 0.123919 -1.064920 -0.835149 0.003852 -0.026219 -0.649313 0.173227 0.072794 -1.046374 0.491925 -0.329834 -0.405793 -0.010441 -0.511939 0.786943 0.241931 0.337122 -0.559657 0.712832 -0.634869 -0.170606 0.242853 0.138470 0.091268 -0.319189 0.743733 0.289149 -1.008520 0.368438 0.243037 -0.656066 0.650860 0.281079 -0.124345 -0.798419 0.334308 0.165110 0.407765 0.623218 -0.255243 -0.763123 -0.184227
175 -0.689617 -0.324994 -0.366254 -0.088897 0.589653 0.441011 -0.083938 0.686233 -0.448318 0.048554 -0.015118 0.600674 -0.501836 0.259158 0.164260 0.745462 -0.050349 0.176872 -0.133197 0.098702 0.549250 0.970265 -0.695154 -0.387562 -0.788907 0.428888 -0.448655 0.415987 1.512996 0.121853 0.147859 0.121808 0.067269 0.766423 -0.365401 -0.943438 -0.582387 0.984083 0.574646 0.689103 -0.818403 0.250289 -0.973058 -0.017547 -0.385649 0.434678 -0.034122 -0.282703 0.037125 0.249451 0.484746 1.099436 -1.631318 -0.318484 -0.880347 -0.355784 0.250692 0.030778 -0.074852 0.555371 -0.945414 0.115261 0.229345 0.219196
302 1.259429 -0.449278 0.808470 1.047470 -0.633859 0.798783 0.860115 0.922663 0.708034 -0.131878 -0.280376 0.957033 0.407440 -0.325957 0.706484 0.001469 -0.383744 -0.062079 0.463152 0.453865 0.268327 -1.413364 -0.957548 0.066419 0.589303 -0.576826 0.362311 0.290591 0.603962 -0.032282 -0.378251 0.127222 0.302636 -0.295806 -1.026360 0.093378 -0.417134 0.817686 1.126456 -0.521204 -0.532823 -0.054485 0.047758 0.594050 -0.083285 -0.169598 -0.328124 0.174577 0.201990 1.187096 -0.327828 -0.450188 0.328218 -0.615248 -0.375997 0.198440 -0.398314 -0.292254 -0.233754 -0.117599 -0.394034 0.183523 -0.071279 -0.165254
800 -0.187099 0.478825 -0.959665 -0.337838 -0.031961 -0.957117 -0.017161 0.973864 -0.175657 1.019763 -0.815704 0.002976 0.403367 -0.193903 0.075767 -0.995750 0.714928 -0.064466 0.778529 -0.542486 -0.126025 0.050998 -0.412943 -0.089315 0.198129 0.154201 0.815812 -0.428184 1.016644 -0.200012 0.186455 0.267134 -0.726174 -0.267140 -0.370356 0.614664 -0.253753 -0.337527 -0.013006 -0.886781 -0.068215 -0.050215 -0.214777 0.757888 -0.625311 -0.929869 -0.456626 0.009653 0.509150 -0.536153 -0.348627 0.299882 -0.711047 1.069885 0.306774 -0.491366 0.116638 0.266019 0.239393 0.491930 1.194145 0.514003 0.280125 -0.018416
12 -0.952862 -0.544375 0.157518 -0.044860 0.319457 -0.518202 0.334544 -0.185003 0.305146 -0.512074 0.024745 0.307038 -0.201119 -0.188377 -0.007822 0.485267 -0.126341 0.134311 0.682772 -0.050512 -0.259885 -0.570801 0.208794 0.453996 -0.356994 0.493882 -0.249019 -1.497814 -0.051246 -0.354267 -0.262593 0.151649 -0.101426 0.226218 -0.197077 -0.619277 0.585034 0.462992 -0.584786 0.567829 -0.264242 0.479890 0.169222 0.727685 0.005067 0.072250 -0.731829 0.015342 0.398889 0.114607 -0.081381 -0.200861 0.703993 0.254752 -0.347355 -0.403388 -0.887399 -0.242805 -0.392673 -0.889917 0.271235 0.649396 0.422906 -0.920112
647 -0.993764 -0.600619 0.251235 0.032486 0.261220 -0.487258 0.293288 -0.098228 0.249242 -0.426819 -0.046821 0.335827 -0.052629 -0.161100 -0.028624 0.419116 0.044230 0.014898 0.814663 -0.115501 -0.372398 -0.670489 0.235113 0.551278 -0.318858 0.457307 -0.134170 -1.652015 -0.160695 -0.370846 -0.324802 0.093618 -0.117259 0.370177 0.004066 -0.602451 0.521477 0.302746 -0.606919 0.587855 -0.311385 0.465795 0.327929 0.617474 0.181777 0.213516 -0.695592 0.052089 0.282730 0.360711 -0.235262 0.057638 0.676716 0.268099 -0.324408 -0.334512 -0.949060 -0.213309 -0.228016 -0.939465 0.287392 0.732485 0.426326 -0.912437
1153 -0.281167 -0.037689 0.309497 -0.651932 -0.360346 0.265915 0.011984 -0.376335 -0.470542 -0.183712 -0.323974 1.068893 0.119908 0.110869 -0.324856 -0.109824 -0.240256 0.106053 0.309005 0.173572 -0.106779 -0.230076 0.544251 0.004075 0.299765 0.336085 -0.987655 -0.256503 -0.573680 -0.650711 0.263268 -0.433010 0.385160 -0.087720 -0.084122 0.061368 -0.432766 0.131142 0.456375 0.034199 0.308920 -0.643999 0.188072 0.403924 -0.497291 -0.408858 -0.464726 0.094299 -0.131530 -0.064351 0.207301 -1.136698 -0.518467 0.209793 -0.134067 -0.009233 0.145322 -0.314842 0.483750 0.354157 0.270022 -0.020058 0.228936 0.330686
268 -1.014268 -0.555363 0.217660 0.037379 0.388082 -0.550751 0.302903 -0.049036 0.321590 -0.524129 -0.056701 0.248836 -0.110868 -0.093337 -0.020677 0.427918 -0.030123 0.090301 0.703961 -0.033268 -0.369055 -0.598684 0.207263 0.467543 -0.416771 0.372655 -0.133407 -1.523271 -0.085055 -0.172266 -0.186017 0.011997 -0.119921 0.285298 -0.079380 -0.586674 0.601576 0.364112 -0.531119 0.559533 -0.255981 0.549256 0.268749 0.684933 0.112285 0.224470 -0.640403 -0.006500 0.338594 0.266942 -0.180046 0.016928 0.713755 0.281786 -0.294542 -0.351884 -0.926992 -0.156547 -0.252353 -0.877588 0.271568 0.628855 0.440327 -0.887018
432 0.635297 -0.133883 0.486034 0.395564 -0.767565 -0.432155 0.232286 0.840228 -0.783153 0.339184 -0.960723 -0.021429 -0.283812 0.760528 0.287996 0.070628 -0.664634 0.304481 0.308898 -0.005343 -0.380407 0.019133 -0.914424 0.394572 0.610524 0.301009 1.387304 -0.523414 0.340055 -0.016298 -0.236571 -1.269392 0.670700 0.460705 0.588506 -0.430969 -0.049208 -0.078530 -0.991490 -0.595424 -0.124267 -0.434606 -0.913660 -0.621034 -1.077147 -0.339128 -0.338901 -0.569635 0.028951 0.607651 -0.519267 -0.270187 -0.310992 -0.505032 0.771215 -1.271669 -0.162194 0.180595 0.470339 -0.459909 -0.617245 -0.310740 0.108174 -0.094799
1014 -0.572531 0.240479 0.095233 -0.021517 0.409371 -0.348449 0.214320 0.357283 0.223853 -0.334425 0.061730 -0.426899 0.150803 0.919312 0.758585 -0.370195 0.276564 0.081334 0.489474 -0.603999 -0.117884 -0.224656 0.352605 -0.391552 0.506768 0.051391 0.928629 0.227083 1.009365 -0.679386 0.461117 -0.881948 -0.274096 0.134916 0.508136 0.129293 -0.495556 -0.069899 0.345183 0.611993 -0.289912 -1.169423 -1.444234 0.669616 -0.471427 -0.464960 -0.559081 -0.434031 -0.095543 0.267719 -0.624282 0.113953 0.190425 -0.124146 0.604943 -0.417969 0.272744 -0.165341 0.279882 0.754162 -0.063168 0.349102 0.376500 0.215267
95 -0.936288 -0.482461 0.155940 0.014682 0.187175 -0.484325 0.301486 -0.216506 0.196796 -0.493074 0.016126 0.326598 -0.218683 -0.171320 -0.038462 0.434316 -0.135786 0.144606 0.735386 -0.036910 -0.272945 -0.572403 0.202306 0.396481 -0.421992 0.432594 -0.234486 -1.395804 -0.082679 -0.294004 -0.314858 0.104729 -0.125712 0.192821 -0.119021 -0.636065 0.551805 0.383016 -0.572435 0.602234 -0.150509 0.432620 0.284377 0.755294 0.047379 0.070291 -0.713590 0.155187 0.338368 0.170247 -0.152647 -0.033946 0.635718 0.213139 -0.357023 -0.382242 -0.860910 -0.247068 -0.240134 -0.931341 0.270027 0.698812 0.460891 -0.911558
1193 0.176917 -0.096002 -0.266122 -0.125000 0.181160 0.489742 0.015090 -0.320718 0.321918 0.176301 -0.161352 0.299496 -0.242484 -0.145392 -0.285326 -0.086826 -0.104957 -0.195834 0.063458 -0.579146 -0.079395 -0.172438 0.502725 -1.375427 0.970596 0.375780 -0.525697 0.721855 -0.115005 -0.612587 0.101569 0.393685 0.180946 -0.006566 -0.298285 1.426162 0.782139 0.614939 0.050957 -0.378300 0.390975 -0.265484 0.023713 -0.195445 -1.044458 0.408000 0.578830 -0.074903 0.547270 -0.916082 0.368139 -0.115678 -0.094385 -0.147365 -0.957005 0.060840 -0.273098 -0.004012 -0.946599 -0.067109 0.615608 0.174876 0.776547 -0.671249
413 -0.872783 -0.510196 0.242080 0.000119 0.259234 -0.561168 0.294476 -0.104050 0.344637 -0.483988 -0.092465 0.305506 -0.167309 -0.266048 -0.053235 0.432767 -0.072701 0.138411 0.763565 -0.143340 -0.282221 -0.699949 0.182113 0.544012 -0.323316 0.384816 -0.228590 -1.447267 -0.067335 -0.302979 -0.179732 0.062906 -0.163911 0.259985 -0.247354 -0.527750 0.559309 0.301366 -0.571450 0.666650 -0.182799 0.470341 0.306315 0.701695 0.042108 0.098669 -0.751220 0.050638 0.227385 0.200643 -0.168312 0.012163 0.534416 0.444181 -0.356564 -0.388337 -0.956819 -0.079312 -0.136329 -0.972489 0.240150 0.675255 0.556497 -1.002317
523 0.282598 0.042132 -0.546601 -0.465208 -0.417373 -0.857535 -0.314112 -0.503423 0.158389 -0.553905 0.339365 -0.766872 0.217500 0.116589 0.100476 0.316710 0.187620 0.009535 0.099791 -0.429826 0.092387 -0.209249 -0.286693 -0.863782 -0.616045 -0.226566 0.154201 -0.572213 0.577153 0.086125 0.455869 -0.285636 0.355029 -0.305818 -0.325026 -0.898133 -0.012011 0.149499 0.317950 0.201057 0.394874 0.996632 0.656136 -0.824639 -0.968196 0.476922 0.660974 -0.746559 -0.589291 0.533551 0.135893 -0.539505 0.609075 0.105400 -0.034367 -0.957302 -0.221564 -0.578855 -0.267124 -0.302158 1.176489 0.425497 0.187285 0.240362
144 0.437259 -0.504695 0.017594 -1.145640 -0.131244 0.262124 0.174397 -0.252663 -0.106636 0.207143 0.174518 0.139861 0.869482 -0.787892 0.623005 0.079115 -0.528231 -0.058383 -1.392336 0.429707 -0.223446 0.473185 0.005273 -0.170889 0.114267 -0.747984 -0.505764 -0.555221 -0.533258 0.465259 0.138350 0.651808 0.894976 0.521025 -0.121722 -0.016521 0.331173 0.129441 0.272224 0.398440 -0.157674 0.837667 1.044725 -0.216385 0.005399 -0.866281 0.027524 -0.261317 0.254055 0.085635 0.088891 -0.542796 0.494937 -0.225084 -0.886427 -1.090543 0.522128 -0.395533 -0.744928 -0.866334 0.067657 -0.288870 -0.774430 -0.325825
61 0.148792 -0.269894 0.314880 -1.079743 -0.010458 0.146004 -0.635613 0.293075 -0.278535 0.275596 -0.754695 0.422135 0.249988 0.337040 -0.584361 -0.101601 0.096064 0.106831 0.219644 0.820363 -0.029599 0.669660 0.358039 -0.747702 0.183576 -0.634076 -0.298895 0.093233 -0.135832 0.650407 0.057495 0.387024 0.661108 0.706786 -1.149683 -1.282204 -0.109880 -0.652959 -0.257104 0.329970 -0.380477 0.574445 -0.232156 -0.545340 -0.527141 -0.224062 0.442050 0.185959 0.070780 0.197859 0.051850 0.336264 0.095067 -0.695569 -0.594387 -1.124887 0.314089 -0.175182 -0.226802 -0.289024 -0.284084 -0.344945 -0.968202 0.683499
541 -1.135092 -0.075044 -0.179010 0.548043 0.277932 0.357069 0.568539 -0.299637 -0.128598 0.316429 -0.457438 0.438318 -0.239653 0.121550 -0.907787 1.034360 0.855166 0.218921 0.168737 1.554639 -0.480901 -0.464018 0.182569 -0.280574 0.646250 0.104305 -0.402639 -0.312719 0.345694 0.805686 -0.125176 0.144799 -0.042925 0.497266 -0.114127 -0.172331 -0.975449 0.204791 0.901145 -0.892061 -0.025817 -0.166421 0.485612 -0.195332 -0.090311 0.229522 -0.636767 0.291020 0.730670 0.284965 -0.158778 1.123844 0.358091 -0.184700 -0.290727 -0.583567 0.363063 -0.102153 0.364441 -0.111622 -0.502174 -0.865358 0.245165 0.037099
790 0.960431 -0.916343 0.799473 0.197661 -0.363793 0.563832 0.713540 0.877151 -0.255462 -0.313378 -0.140324 -0.024706 -0.241732 -0.641486 0.058776 -0.478737 -0.022801 -0.820044 0.339936 0.408859 0.652005 -0.461265 -0.904742 0.360310 0.317169 -0.396025 0.023139 -0.231472 0.465088 -0.013384 0.161613 -0.599000 0.769048 0.271709 -0.443385 0.039464 -0.028679 -0.076660 0.600226 -0.044422 -0.082259 0.185808 0.843028 0.170369 -0.098240 -1.409048 -0.861615 -0.532085 -0.157212 0.668027 -0.157995 0.122293 0.186707 -1.562335 0.064393 0.373068 -0.021775 0.552214 0.326642 0.225939 -0.151340 0.484279 -0.526223 -0.234250
708 -0.126945 -0.923633 0.762812 -0.298941 -0.063403 -0.087990 0.024162 0.005375 -0.435052 0.616272 -0.191180 0.111743 -0.201899 0.630224 0.225669 -0.632247 0.442107 -0.588661 0.365858 0.270236 -0.140352 0.584395 -0.004247 -0.191266 -1.107028 0.144768 0.258286 -0.801943 -0.475377 -0.065059 -0.726721 0.292078 -0.175612 0.237075 0.650091 0.277108 0.481971 0.031074 -0.265375 -0.461805 -0.184250 -0.574169 0.081671 -0.275598 0.033674 0.353430 0.402321 -0.452290 -0.385049 0.222341 0.195601 0.016093 -0.029144 -0.199158 0.427281 0.109746 0.027421 -0.248181 -0.015781 0.683174 0.224984 0.073749 -0.703248 0.057398
230 -0.111413 -0.164556 -0.450992 0.218432 -0.661595 -0.310351 0.474951 0.844069 0.436454 0.181410 0.087920 -0.334921 0.304534 -0.039475 0.799594 0.290242 0.258060 -0.058593 0.158348 -0.077856 0.303372 0.834884 -0.297849 -0.138232 0.367261 0.114488 -0.187623 -1.195945 -0.830359 0.257676 -0.336405 0.855242 -0.006116 -0.162684 0.334402 -0.916008 -0.505224 0.933555 0.187564 -0.452796 0.275269 0.034066 -0.504511 -0.626645 -0.015756 -0.586767 -0.454642 0.045609 -0.624750 -0.856516 -0.914755 0.203152 -0.974839 0.566872 -0.053899 -0.500724 0.519679 -0.547769 -0.607434 -1.024027 0.012873 -0.499571 -0.190017 0.243278
